{"learner":{"attributes":{"scikit_learn":"{\"_estimator_type\": \"classifier\"}"},"feature_names":["pT","y","dedx"],"feature_types":["float","float","float"],"gradient_booster":{"model":{"gbtree_model_param":{"num_parallel_tree":"1","num_trees":"200"},"iteration_indptr":[0,1,2,3,4,5,6,7,8,9,10,11,12,13,14,15,16,17,18,19,20,21,22,23,24,25,26,27,28,29,30,31,32,33,34,35,36,37,38,39,40,41,42,43,44,45,46,47,48,49,50,51,52,53,54,55,56,57,58,59,60,61,62,63,64,65,66,67,68,69,70,71,72,73,74,75,76,77,78,79,80,81,82,83,84,85,86,87,88,89,90,91,92,93,94,95,96,97,98,99,100,101,102,103,104,105,106,107,108,109,110,111,112,113,114,115,116,117,118,119,120,121,122,123,124,125,126,127,128,129,130,131,132,133,134,135,136,137,138,139,140,141,142,143,144,145,146,147,148,149,150,151,152,153,154,155,156,157,158,159,160,161,162,163,164,165,166,167,168,169,170,171,172,173,174,175,176,177,178,179,180,181,182,183,184,185,186,187,188,189,190,191,192,193,194,195,196,197,198,199,200],"tree_info":[0,0,0,0,0,0,0,0,0,0,0,0,0,0,0,0,0,0,0,0,0,0,0,0,0,0,0,0,0,0,0,0,0,0,0,0,0,0,0,0,0,0,0,0,0,0,0,0,0,0,0,0,0,0,0,0,0,0,0,0,0,0,0,0,0,0,0,0,0,0,0,0,0,0,0,0,0,0,0,0,0,0,0,0,0,0,0,0,0,0,0,0,0,0,0,0,0,0,0,0,0,0,0,0,0,0,0,0,0,0,0,0,0,0,0,0,0,0,0,0,0,0,0,0,0,0,0,0,0,0,0,0,0,0,0,0,0,0,0,0,0,0,0,0,0,0,0,0,0,0,0,0,0,0,0,0,0,0,0,0,0,0,0,0,0,0,0,0,0,0,0,0,0,0,0,0,0,0,0,0,0,0,0,0,0,0,0,0,0,0,0,0,0,0,0,0,0,0,0,0],"trees":[{"base_weights":[1.6492135E-7,-3.384906E-1,2.4555624E0,-9.1171396E-1,7.533211E-1,-5.3245234E-1,7.261351E0,-1.0337507E-1,9.610276E-4,2.2488658E-1,4.173706E-2,-6.744086E-2,2.5344738E-1,5.3675693E-1,1.1939851E0],"categories":[],"categories_nodes":[],"categories_segments":[],"categories_sizes":[],"default_left":[0,0,0,0,0,0,0,0,0,0,0,0,0,0,0],"id":0,"left_children":[1,3,5,7,9,11,13,-1,-1,-1,-1,-1,-1,-1,-1],"loss_changes":[2.143049E5,1.4181572E5,4.485363E5,1.6706273E4,3.9193906E4,8.387436E3,1.0603675E5,0E0,0E0,0E0,0E0,0E0,0E0,0E0,0E0],"parents":[2147483647,0,0,1,1,2,2,3,3,4,4,5,5,6,6],"right_children":[2,4,6,8,10,12,14,-1,-1,-1,-1,-1,-1,-1,-1],"split_conditions":[8.39544E1,9.675213E-1,1.6939713E-1,6.556029E1,5.1935257E1,1.4149019E3,5.183298E-1,-1.0337507E-1,9.610276E-4,2.2488658E-1,4.173706E-2,-6.744086E-2,2.5344738E-1,5.3675693E-1,1.1939851E0],"split_indices":[2,0,0,2,2,2,0,0,0,0,0,0,0,0,0],"split_type":[0,0,0,0,0,0,0,0,0,0,0,0,0,0,0],"sum_hessian":[2.5782852E5,2.2659416E5,3.1234357E4,1.4858445E5,7.8009695E4,1.9260172E4,1.1974187E4,1.3120517E5,1.737929E4,1.4308247E4,6.370145E4,1.8408875E4,8.5129645E2,8.525392E3,3.448795E3],"tree_param":{"num_deleted":"0","num_feature":"3","num_nodes":"15","size_leaf_vector":"1"}},{"base_weights":[-1.9556392E-2,-3.4996843E-1,1.5008948E0,-9.087589E-1,6.8859863E-1,-5.379983E-1,3.4221406E0,-1.02589786E-1,-6.0752607E-3,1.9395462E-1,1.8966807E-2,-7.150085E-2,1.464929E-1,2.9552227E-1,6.804181E-1],"categories":[],"categories_nodes":[],"categories_segments":[],"categories_sizes":[],"default_left":[0,0,0,0,0,0,0,0,0,0,0,0,0,0,0],"id":1,"left_children":[1,3,5,7,9,11,13,-1,-1,-1,-1,-1,-1,-1,-1],"loss_changes":[1.311894E5,1.2449566E5,1.8261384E5,1.38548125E4,4.6837566E4,8.0197563E3,3.788153E4,0E0,0E0,0E0,0E0,0E0,0E0,0E0,0E0],"parents":[2147483647,0,0,1,1,2,2,3,3,4,4,5,5,6,6],"right_children":[2,4,6,8,10,12,14,-1,-1,-1,-1,-1,-1,-1,-1],"split_conditions":[7.7005775E1,1.0665526E0,1.8319166E-1,6.2478584E1,5.347005E1,7.253127E2,2.6985034E2,-1.02589786E-1,-6.0752607E-3,1.9395462E-1,1.8966807E-2,-7.150085E-2,1.464929E-1,2.9552227E-1,6.804181E-1],"split_indices":[2,0,0,2,2,2,2,0,0,0,0,0,0,0,0],"split_type":[0,0,0,0,0,0,0,0,0,0,0,0,0,0,0],"sum_hessian":[2.6113616E5,2.1451933E5,4.661682E4,1.3947588E5,7.504345E4,2.2616316E4,2.4000506E4,1.2254761E5,1.6928268E4,2.1395795E4,5.364766E4,2.0780469E4,1.8358461E3,2.1090645E4,2.9098606E3],"tree_param":{"num_deleted":"0","num_feature":"3","num_nodes":"15","size_leaf_vector":"1"}},{"base_weights":[-2.6463527E-2,-3.3712506E-1,1.1515373E0,-8.88994E-1,6.154269E-1,-4.6579447E-1,2.421228E0,-1.01867035E-1,-5.165338E-3,1.6027884E-1,7.5064907E-3,-6.566872E-2,1.4025937E-1,2.736881E-1,-1.152507E-1],"categories":[],"categories_nodes":[],"categories_segments":[],"categories_sizes":[],"default_left":[0,0,0,0,0,0,0,0,0,0,0,0,0,0,0],"id":2,"left_children":[1,3,5,7,9,11,13,-1,-1,-1,-1,-1,-1,-1,-1],"loss_changes":[9.542963E4,1.0847413E5,1.1174882E5,1.4186703E4,4.038583E4,8.537047E3,3.439258E4,0E0,0E0,0E0,0E0,0E0,0E0,0E0,0E0],"parents":[2147483647,0,0,1,1,2,2,3,3,4,4,5,5,6,6],"right_children":[2,4,6,8,10,12,14,-1,-1,-1,-1,-1,-1,-1,-1],"split_conditions":[7.525048E1,1.1141019E0,2.0359644E-1,6.1152378E1,5.4237846E1,7.253127E2,1.2615889E0,-1.01867035E-1,-5.165338E-3,1.6027884E-1,7.5064907E-3,-6.566872E-2,1.4025937E-1,2.736881E-1,-1.152507E-1],"split_indices":[2,0,0,2,2,2,0,0,0,0,0,0,0,0,0],"split_type":[0,0,0,0,0,0,0,0,0,0,0,0,0,0,0],"sum_hessian":[2.6076345E5,2.063466E5,5.4416863E4,1.3065221E5,7.569438E4,2.3932402E4,3.0484459E4,1.1313165E5,1.7520559E4,2.6772715E4,4.8921664E4,2.1714488E4,2.2179143E3,2.801063E4,2.4738274E3],"tree_param":{"num_deleted":"0","num_feature":"3","num_nodes":"15","size_leaf_vector":"1"}},{"base_weights":[-3.015632E-2,-3.2324797E-1,9.294647E-1,-8.73227E-1,5.515892E-1,-5.494846E-1,1.8039455E0,-1.0173044E-1,-7.718818E-3,1.338673E-1,-8.3587196E-4,-7.79159E-2,5.3189367E-2,2.038436E-1,-1.1196726E-1],"categories":[],"categories_nodes":[],"categories_segments":[],"categories_sizes":[],"default_left":[0,0,0,0,0,0,0,0,0,0,0,0,0,0,0],"id":3,"left_children":[1,3,5,7,9,11,13,-1,-1,-1,-1,-1,-1,-1,-1],"loss_changes":[7.284456E4,9.545915E4,7.837092E4,1.3971391E4,3.375215E4,5.592834E3,2.6108633E4,0E0,0E0,0E0,0E0,0E0,0E0,0E0,0E0],"parents":[2147483647,0,0,1,1,2,2,3,3,4,4,5,5,6,6],"right_children":[2,4,6,8,10,12,14,-1,-1,-1,-1,-1,-1,-1,-1],"split_conditions":[7.372693E1,1.1482272E0,1.7976812E-1,5.967501E1,5.488625E1,3.157351E2,1.3040298E0,-1.0173044E-1,-7.718818E-3,1.338673E-1,-8.3587196E-4,-7.79159E-2,5.3189367E-2,2.038436E-1,-1.1196726E-1],"split_indices":[2,0,0,2,2,2,0,0,0,0,0,0,0,0,0],"split_type":[0,0,0,0,0,0,0,0,0,0,0,0,0,0,0],"sum_hessian":[2.5899444E5,1.9839916E5,6.0595277E4,1.21817086E5,7.658207E4,2.2515957E4,3.807932E4,1.0314778E5,1.8669303E4,3.1833842E4,4.474823E4,1.8571771E4,3.9441855E3,3.5252203E4,2.8271184E3],"tree_param":{"num_deleted":"0","num_feature":"3","num_nodes":"15","size_leaf_vector":"1"}},{"base_weights":[-3.2173637E-2,-2.2209536E-1,1.1557571E0,-8.4753424E-1,3.9416778E-1,-5.258811E-1,1.8956144E0,-1.02388255E-1,-2.7167592E-2,2.7182776E-2,2.243016E-1,-6.46897E-2,3.927893E-2,1.3073751E-1,2.914752E-1],"categories":[],"categories_nodes":[],"categories_segments":[],"categories_sizes":[],"default_left":[0,0,0,0,0,0,0,0,0,0,0,0,0,0,0],"id":4,"left_children":[1,3,5,7,9,11,13,-1,-1,-1,-1,-1,-1,-1,-1],"loss_changes":[5.784521E4,8.5200586E4,4.3970773E4,1.1140797E4,2.5183686E4,1.2007812E3,1.4709594E4,0E0,0E0,0E0,0E0,0E0,0E0,0E0,0E0],"parents":[2147483647,0,0,1,1,2,2,3,3,4,4,5,5,6,6],"right_children":[2,4,6,8,10,12,14,-1,-1,-1,-1,-1,-1,-1,-1],"split_conditions":[1.0431334E2,7.480238E-1,1.2959485E-1,7.007484E1,7.236668E1,1.4149019E3,4.326168E-1,-1.02388255E-1,-2.7167592E-2,2.7182776E-2,2.243016E-1,-6.46897E-2,3.927893E-2,1.3073751E-1,2.914752E-1],"split_indices":[2,0,0,2,2,2,0,0,0,0,0,0,0,0,0],"split_type":[0,0,0,0,0,0,0,0,0,0,0,0,0,0,0],"sum_hessian":[2.5638823E5,2.2104866E5,3.5339582E4,1.0970741E5,1.1134125E5,1.0797651E4,2.454193E4,8.398686E4,2.5720545E4,1.0443203E5,6.9092188E3,9.541103E3,1.2565483E3,1.5561957E4,8.979974E3],"tree_param":{"num_deleted":"0","num_feature":"3","num_nodes":"15","size_leaf_vector":"1"}},{"base_weights":[-3.241639E-2,-2.833167E-1,6.837903E-1,-9.391293E-1,3.4073144E-1,-1.1037269E-1,1.5706719E0,-1.0179871E-1,-3.7253704E-2,2.4360688E-2,1.779212E-1,-3.8888473E-2,1.5126981E-1,1.8710445E-1,-1.1407476E-1],"categories":[],"categories_nodes":[],"categories_segments":[],"categories_sizes":[],"default_left":[0,0,0,0,0,0,0,0,0,0,0,0,0,0,0],"id":5,"left_children":[1,3,5,7,9,11,13,-1,-1,-1,-1,-1,-1,-1,-1],"loss_changes":[4.555403E4,7.6833484E4,4.6322383E4,4.0896172E3,1.3439718E4,1.5685912E4,2.5306898E4,0E0,0E0,0E0,0E0,0E0,0E0,0E0,0E0],"parents":[2147483647,0,0,1,1,2,2,3,3,4,4,5,5,6,6],"right_children":[2,4,6,8,10,12,14,-1,-1,-1,-1,-1,-1,-1,-1],"split_conditions":[7.372693E1,9.177951E-1,3.3954033E-1,6.3481804E1,7.150009E0,4.9919733E2,1.3040298E0,-1.0179871E-1,-3.7253704E-2,2.4360688E-2,1.779212E-1,-3.8888473E-2,1.5126981E-1,1.8710445E-1,-1.1407476E-1],"split_indices":[2,0,0,2,0,2,0,0,0,0,0,0,0,0,0],"split_type":[0,0,0,0,0,0,0,0,0,0,0,0,0,0,0],"sum_hessian":[2.5350333E5,1.8773644E5,6.576691E4,9.153829E4,9.619814E4,3.469761E4,3.1069293E4,8.03539E4,1.118439E4,9.011486E4,6.083282E3,2.9616334E4,5.0812764E3,2.7970965E4,3.0983289E3],"tree_param":{"num_deleted":"0","num_feature":"3","num_nodes":"15","size_leaf_vector":"1"}},{"base_weights":[-3.2631107E-2,-1.8864317E-1,9.468361E-1,-8.2246614E-1,2.9821062E-1,-5.3348047E-1,1.496779E0,-1.0122937E-1,-3.158572E-2,1.7376466E-2,1.596399E-1,-5.761227E-2,9.145552E-2,1.0445561E-1,2.3018275E-1],"categories":[],"categories_nodes":[],"categories_segments":[],"categories_sizes":[],"default_left":[0,0,0,0,0,0,0,0,0,0,0,0,0,0,0],"id":6,"left_children":[1,3,5,7,9,11,13,-1,-1,-1,-1,-1,-1,-1,-1],"loss_changes":[3.826506E4,6.665501E4,2.801031E4,9.024035E3,1.973637E4,5.7603735E2,9.130641E3,0E0,0E0,0E0,0E0,0E0,0E0,0E0,0E0],"parents":[2147483647,0,0,1,1,2,2,3,3,4,4,5,5,6,6],"right_children":[2,4,6,8,10,12,14,-1,-1,-1,-1,-1,-1,-1,-1],"split_conditions":[1.11058395E2,6.9197315E-1,1.2183484E-1,7.236668E1,7.116303E1,6.472723E-1,4.2383382E-1,-1.0122937E-1,-3.158572E-2,1.7376466E-2,1.596399E-1,-5.761227E-2,9.145552E-2,1.0445561E-1,2.3018275E-1],"split_indices":[2,0,0,2,2,1,0,0,0,0,0,0,0,0,0],"split_type":[0,0,0,0,0,0,0,0,0,0,0,0,0,0,0],"sum_hessian":[2.5040934E5,2.1600442E5,3.4404934E4,9.383815E4,1.22166266E5,9.319383E3,2.5085549E4,6.825998E4,2.5578172E4,1.1148072E5,1.068555E4,9.053378E3,2.6600482E2,1.6064101E4,9.021449E3],"tree_param":{"num_deleted":"0","num_feature":"3","num_nodes":"15","size_leaf_vector":"1"}},{"base_weights":[-3.1857323E-2,-1.7114994E-1,8.6010003E-1,-8.088246E-1,2.5393432E-1,-5.163371E-1,1.3232483E0,-1.008014E-1,-3.2021753E-2,1.2210718E-2,1.3065003E-1,1.4908804E-1,-5.4885894E-2,8.9142285E-2,2.0495725E-1],"categories":[],"categories_nodes":[],"categories_segments":[],"categories_sizes":[],"default_left":[0,0,0,0,0,0,0,0,0,0,0,0,0,0,0],"id":7,"left_children":[1,3,5,7,9,11,13,-1,-1,-1,-1,-1,-1,-1,-1],"loss_changes":[3.0699785E4,5.7932023E4,2.1277363E4,8.319426E3,1.779345E4,5.4939087E2,7.830801E3,0E0,0E0,0E0,0E0,0E0,0E0,0E0,0E0],"parents":[2147483647,0,0,1,1,2,2,3,3,4,4,5,5,6,6],"right_children":[2,4,6,8,10,12,14,-1,-1,-1,-1,-1,-1,-1,-1],"split_conditions":[1.150234E2,6.558463E-1,1.1783299E-1,7.372693E1,6.957453E1,-6.8360025E-1,4.0684465E-1,-1.008014E-1,-3.2021753E-2,1.2210718E-2,1.3065003E-1,1.4908804E-1,-5.4885894E-2,8.9142285E-2,2.0495725E-1],"split_indices":[2,0,0,2,2,1,0,0,0,0,0,0,0,0,0],"split_type":[0,0,0,0,0,0,0,0,0,0,0,0,0,0,0],"sum_hessian":[2.4709238E5,2.137179E5,3.3374473E4,8.5482914E4,1.2823499E5,8.402587E3,2.4971885E4,6.0725875E4,2.4757043E4,1.1396297E5,1.4272018E4,1.3325676E2,8.26933E3,1.5662311E4,9.309573E3],"tree_param":{"num_deleted":"0","num_feature":"3","num_nodes":"15","size_leaf_vector":"1"}},{"base_weights":[-3.0807806E-2,-1.5104477E-1,8.2141775E-1,-7.8740895E-1,2.1690387E-1,-4.9329025E-1,1.2392234E0,-1.0071862E-1,-3.1997643E-2,1.0265533E-2,1.3423972E-1,-6.1034948E-2,7.29501E-3,8.310339E-2,2.0111237E-1],"categories":[],"categories_nodes":[],"categories_segments":[],"categories_sizes":[],"default_left":[0,0,0,0,0,0,0,0,0,0,0,0,0,0,0],"id":8,"left_children":[1,3,5,7,9,11,13,-1,-1,-1,-1,-1,-1,-1,-1],"loss_changes":[2.4975041E4,5.001373E4,1.6553826E4,8.0389375E3,1.7403004E4,4.8179895E2,7.2037656E3,0E0,0E0,0E0,0E0,0E0,0E0,0E0,0E0],"parents":[2147483647,0,0,1,1,2,2,3,3,4,4,5,5,6,6],"right_children":[2,4,6,8,10,12,14,-1,-1,-1,-1,-1,-1,-1,-1],"split_conditions":[1.2461424E2,6.091591E-1,1.13825865E-1,7.525048E1,7.372693E1,1.4149019E3,4.0270764E-1,-1.0071862E-1,-3.1997643E-2,1.0265533E-2,1.3423972E-1,-6.1034948E-2,7.29501E-3,8.310339E-2,2.0111237E-1],"split_indices":[2,0,0,2,2,2,0,0,0,0,0,0,0,0,0],"split_type":[0,0,0,0,0,0,0,0,0,0,0,0,0,0,0],"sum_hessian":[2.4373038E5,2.1359584E5,3.013453E4,7.825439E4,1.3534145E5,7.267072E3,2.2867459E4,5.3226984E4,2.5027404E4,1.2287005E5,1.2471415E4,6.0220513E3,1.2450205E3,1.4959031E4,7.908427E3],"tree_param":{"num_deleted":"0","num_feature":"3","num_nodes":"15","size_leaf_vector":"1"}},{"base_weights":[-2.9518995E-2,-4.3948025E-1,1.8385422E-1,-7.721251E-1,7.255416E-1,-2.216888E-2,1.0427754E0,-9.891626E-2,-2.7596012E-2,-5.3425442E-2,1.1927038E-1,-6.535091E-2,5.0773393E-2,1.9801512E-1,-1.12035036E-1],"categories":[],"categories_nodes":[],"categories_segments":[],"categories_sizes":[],"default_left":[0,0,0,0,0,0,0,0,0,0,0,0,0,0,0],"id":9,"left_children":[1,3,5,7,9,11,13,-1,-1,-1,-1,-1,-1,-1,-1],"loss_changes":[2.1014684E4,3.186994E4,2.7959645E4,6.888504E3,1.075054E4,4.263389E4,6.1981547E4,0E0,0E0,0E0,0E0,0E0,0E0,0E0,0E0],"parents":[2147483647,0,0,1,1,2,2,3,3,4,4,5,5,6,6],"right_children":[2,4,6,8,10,12,14,-1,-1,-1,-1,-1,-1,-1,-1],"split_conditions":[4.6900347E-1,1.6467946E2,6.819643E1,8.6974556E1,9.6913405E-2,1.3263593E0,1.4485137E0,-9.891626E-2,-2.7596012E-2,-5.3425442E-2,1.1927038E-1,-6.535091E-2,5.0773393E-2,1.9801512E-1,-1.12035036E-1],"split_indices":[0,2,2,2,0,0,0,0,0,0,0,0,0,0,0],"split_type":[0,0,0,0,0,0,0,0,0,0,0,0,0,0,0],"sum_hessian":[2.402352E5,8.223439E4,1.5800081E5,6.396968E4,1.8264715E4,1.27434914E5,3.0565898E4,4.4502117E4,1.9467562E4,4.9407773E3,1.33239375E4,5.8151473E4,6.928344E4,2.1324957E4,9.240939E3],"tree_param":{"num_deleted":"0","num_feature":"3","num_nodes":"15","size_leaf_vector":"1"}},{"base_weights":[-2.937E-2,-3.828257E-1,1.9426459E-1,-8.957334E-1,3.8750702E-1,3.209191E-2,1.0112598E0,-1.012451E-1,-5.5502445E-2,-4.2406667E-2,6.953399E-2,-9.51309E-3,2.3102401E-1,2.1717493E-1,-1.103804E-1],"categories":[],"categories_nodes":[],"categories_segments":[],"categories_sizes":[],"default_left":[0,0,0,0,0,0,0,0,0,0,0,0,0,0,0],"id":10,"left_children":[1,3,5,7,9,11,13,-1,-1,-1,-1,-1,-1,-1,-1],"loss_changes":[1.865285E4,3.6131668E4,1.9149578E4,2.182461E3,9.131934E3,3.495252E4,5.8757723E4,0E0,0E0,0E0,0E0,0E0,0E0,0E0,0E0],"parents":[2147483647,0,0,1,1,2,2,3,3,4,4,5,5,6,6],"right_children":[2,4,6,8,10,12,14,-1,-1,-1,-1,-1,-1,-1,-1],"split_conditions":[5.613152E-1,9.649579E1,6.819643E1,7.445493E1,1.3332738E-1,6.0966725E0,1.4485137E0,-1.012451E-1,-5.5502445E-2,-4.2406667E-2,6.953399E-2,-9.51309E-3,2.3102401E-1,2.1717493E-1,-1.103804E-1],"split_indices":[0,2,2,2,0,0,0,0,0,0,0,0,0,0,0],"split_type":[0,0,0,0,0,0,0,0,0,0,0,0,0,0,0],"sum_hessian":[2.359759E5,9.1445336E4,1.4453056E5,5.4894785E4,3.655055E4,1.2059385E5,2.393671E4,4.0886297E4,1.4008487E4,1.0051168E4,2.649938E4,1.14216414E5,6.377439E3,1.5456203E4,8.480509E3],"tree_param":{"num_deleted":"0","num_feature":"3","num_nodes":"15","size_leaf_vector":"1"}},{"base_weights":[-2.8886978E-2,-3.561132E-1,1.7945656E-1,-8.684772E-1,3.6496362E-1,3.9903402E-2,9.333725E-1,-1.0085837E-1,-5.118378E-2,-4.1377705E-2,6.254859E-2,-5.7107594E-2,4.109384E-2,2.0313601E-1,-1.0844733E-1],"categories":[],"categories_nodes":[],"categories_segments":[],"categories_sizes":[],"default_left":[0,0,0,0,0,0,0,0,0,0,0,0,0,0,0],"id":11,"left_children":[1,3,5,7,9,11,13,-1,-1,-1,-1,-1,-1,-1,-1],"loss_changes":[1.5805466E4,3.3320184E4,1.4902979E4,2.6339727E3,7.600884E3,2.7095918E4,4.9020266E4,0E0,0E0,0E0,0E0,0E0,0E0,0E0,0E0],"parents":[2147483647,0,0,1,1,2,2,3,3,4,4,5,5,6,6],"right_children":[2,4,6,8,10,12,14,-1,-1,-1,-1,-1,-1,-1,-1],"split_conditions":[5.846467E-1,9.649579E1,6.819643E1,7.303238E1,1.2959485E-1,1.3040298E0,1.4224714E0,-1.0085837E-1,-5.118378E-2,-4.1377705E-2,6.254859E-2,-5.7107594E-2,4.109384E-2,2.0313601E-1,-1.0844733E-1],"split_indices":[0,2,2,2,0,0,0,0,0,0,0,0,0,0,0],"split_type":[0,0,0,0,0,0,0,0,0,0,0,0,0,0,0],"sum_hessian":[2.3183316E5,9.018581E4,1.4164734E5,5.272304E4,3.7462773E4,1.19523984E5,2.2123361E4,3.7851277E4,1.4871762E4,9.391017E3,2.8071758E4,4.515961E4,7.4364375E4,1.4327312E4,7.79605E3],"tree_param":{"num_deleted":"0","num_feature":"3","num_nodes":"15","size_leaf_vector":"1"}},{"base_weights":[-2.8126579E-2,-3.0471617E-1,1.8953632E-1,-7.677162E-1,4.1412267E-1,1.0719118E-1,7.6623666E-1,-1.0059927E-1,-3.236351E-2,1.920884E-2,1.344326E-1,-3.6533915E-3,1.3888662E-1,2.2586142E-1,-1.0742243E-1],"categories":[],"categories_nodes":[],"categories_segments":[],"categories_sizes":[],"default_left":[0,0,0,0,0,0,0,0,0,0,0,0,0,0,0],"id":12,"left_children":[1,3,5,7,9,11,13,-1,-1,-1,-1,-1,-1,-1,-1],"loss_changes":[1.3705527E4,3.3367805E4,6.049857E3,6.452207E3,8.111944E3,2.0535896E4,4.372303E4,0E0,0E0,0E0,0E0,0E0,0E0,0E0,0E0],"parents":[2147483647,0,0,1,1,2,2,3,3,4,4,5,5,6,6],"right_children":[2,4,6,8,10,12,14,-1,-1,-1,-1,-1,-1,-1,-1],"split_conditions":[7.2312003E-1,9.88498E1,6.819643E1,6.737262E1,4.5051327E-1,5.012331E0,1.4485137E0,-1.0059927E-1,-3.236351E-2,1.920884E-2,1.344326E-1,-3.6533915E-3,1.3888662E-1,2.2586142E-1,-1.0742243E-1],"split_indices":[0,2,2,2,0,0,0,0,0,0,0,0,0,0,0],"split_type":[0,0,0,0,0,0,0,0,0,0,0,0,0,0,0],"sum_hessian":[2.2765217E5,1.00255125E5,1.2739705E5,6.0978895E4,3.9276234E4,1.1148033E5,1.5916722E4,3.9684496E4,2.1294396E4,3.170874E4,7.567492E3,1.0024048E5,1.1239846E4,8.789411E3,7.1273105E3],"tree_param":{"num_deleted":"0","num_feature":"3","num_nodes":"15","size_leaf_vector":"1"}},{"base_weights":[-2.7071016E-2,-3.8958728E-1,1.1964908E-1,-6.814823E-1,6.525385E-1,-3.511727E-2,7.538659E-1,-9.869349E-2,-2.8805887E-2,2.7022157E-2,2.1084869E-1,-6.362461E-2,3.2004144E-2,1.2326156E-1,-1.0607703E-1],"categories":[],"categories_nodes":[],"categories_segments":[],"categories_sizes":[],"default_left":[0,0,0,0,0,0,0,0,0,0,0,0,0,0,0],"id":13,"left_children":[1,3,5,7,9,11,13,-1,-1,-1,-1,-1,-1,-1,-1],"loss_changes":[1.1909483E4,1.9624682E4,1.5645857E4,6.056076E3,7.857127E3,2.7355889E4,2.716519E4,0E0,0E0,0E0,0E0,0E0,0E0,0E0,0E0],"parents":[2147483647,0,0,1,1,2,2,3,3,4,4,5,5,6,6],"right_children":[2,4,6,8,10,12,14,-1,-1,-1,-1,-1,-1,-1,-1],"split_conditions":[4.326168E-1,2.1222067E2,6.819643E1,8.541313E1,3.028497E-1,1.2615889E0,1.4485137E0,-9.869349E-2,-2.8805887E-2,2.7022157E-2,2.1084869E-1,-6.362461E-2,3.2004144E-2,1.2326156E-1,-1.0607703E-1],"split_indices":[0,2,2,2,0,0,0,0,0,0,0,0,0,0,0],"split_type":[0,0,0,0,0,0,0,0,0,0,0,0,0,0,0],"sum_hessian":[2.2390934E5,6.4511805E4,1.5939753E5,5.0396348E4,1.4115459E4,1.2813099E5,3.1266543E4,2.8369139E4,2.2027209E4,1.1180707E4,2.9347517E3,4.7586684E4,8.054431E4,2.4739832E4,6.526711E3],"tree_param":{"num_deleted":"0","num_feature":"3","num_nodes":"15","size_leaf_vector":"1"}},{"base_weights":[-2.6146673E-2,-2.6891768E-1,1.791188E-1,-9.8560834E-1,1.6541328E-1,6.742421E-1,7.556203E-2,-1.0129388E-1,-6.365688E-2,1.995986E-1,4.6633566E-3,-6.646755E-2,3.5133502E-1,3.233197E-2,-1.50563E-2],"categories":[],"categories_nodes":[],"categories_segments":[],"categories_sizes":[],"default_left":[0,0,0,0,0,0,0,0,0,0,0,0,0,0,0],"id":14,"left_children":[1,3,5,7,9,11,13,-1,-1,-1,-1,-1,-1,-1,-1],"loss_changes":[1.0973016E4,3.140295E4,6.117658E3,3.624922E2,1.3658282E4,7.84561E4,5.528407E3,0E0,0E0,0E0,0E0,0E0,0E0,0E0,0E0],"parents":[2147483647,0,0,1,1,2,2,3,3,4,4,5,5,6,6],"right_children":[2,4,6,8,10,12,14,-1,-1,-1,-1,-1,-1,-1,-1],"split_conditions":[8.210798E-1,6.589856E1,5.1071144E1,6.1359543E1,-6.907651E-1,2.0853233E0,1.805991E0,-1.0129388E-1,-6.365688E-2,1.995986E-1,4.6633566E-3,-6.646755E-2,3.5133502E-1,3.233197E-2,-1.50563E-2],"split_indices":[0,2,2,2,1,0,0,0,0,0,0,0,0,0,0],"split_type":[0,0,0,0,0,0,0,0,0,0,0,0,0,0,0],"sum_hessian":[2.2019598E5,1.00881445E5,1.1931454E5,3.8066516E4,6.2814926E4,2.0637494E4,9.867704E4,3.530052E4,2.7659976E3,3.8265334E3,5.8988395E4,1.4024388E4,6.613107E3,4.7086027E4,5.1591016E4],"tree_param":{"num_deleted":"0","num_feature":"3","num_nodes":"15","size_leaf_vector":"1"}},{"base_weights":[-2.6299031E-2,-3.8793033E-1,9.4556324E-2,-6.003619E-1,8.680814E-1,3.8761225E-2,1.5629809E0,-9.760427E-2,-2.288192E-2,-6.5793775E-2,1.4471914E-1,-4.5500007E-2,1.3556229E-2,1.7424665E-1,1.3196309E-1],"categories":[],"categories_nodes":[],"categories_segments":[],"categories_sizes":[],"default_left":[0,0,0,0,0,0,0,0,0,0,0,0,0,0,0],"id":15,"left_children":[1,3,5,7,9,11,13,-1,-1,-1,-1,-1,-1,-1,-1],"loss_changes":[9.568954E3,1.4633269E4,1.344496E4,6.5473867E3,7.012573E3,7.556511E3,2.6007617E2,0E0,0E0,0E0,0E0,0E0,0E0,0E0,0E0],"parents":[2147483647,0,0,1,1,2,2,3,3,4,4,5,5,6,6],"right_children":[2,4,6,8,10,12,14,-1,-1,-1,-1,-1,-1,-1,-1],"split_conditions":[3.9025056E-1,3.841419E2,1.3717906E2,8.863144E1,6.706228E-2,6.6990054E-1,5.183298E-1,-9.760427E-2,-2.288192E-2,-6.5793775E-2,1.4471914E-1,-4.5500007E-2,1.3556229E-2,1.7424665E-1,1.3196309E-1],"split_indices":[0,2,2,2,0,0,0,0,0,0,0,0,0,0,0],"split_type":[0,0,0,0,0,0,0,0,0,0,0,0,0,0,0],"sum_hessian":[2.1894195E5,5.484098E4,1.6410097E5,4.6907883E4,7.9330947E3,1.5809492E5,6.006039E3,2.3323246E4,2.3584639E4,2.1823154E3,5.7507793E3,2.5913264E4,1.3218166E5,3.4530457E3,2.5529932E3],"tree_param":{"num_deleted":"0","num_feature":"3","num_nodes":"15","size_leaf_vector":"1"}},{"base_weights":[-2.4503212E-2,-3.862455E-1,7.978617E-2,-9.553144E-1,4.2888306E-2,-6.9945134E-2,6.138421E-1,-9.834641E-2,-2.8159047E-2,-3.5411094E-3,2.7250537E-1,-6.3593164E-2,2.275613E-2,9.346127E-2,-1.050842E-1],"categories":[],"categories_nodes":[],"categories_segments":[],"categories_sizes":[],"default_left":[0,0,0,0,0,0,0,0,0,0,0,0,0,0,0],"id":16,"left_children":[1,3,5,7,9,11,13,-1,-1,-1,-1,-1,-1,-1,-1],"loss_changes":[8.184802E3,1.1856391E4,1.3466475E4,3.9556836E2,5.8130723E3,2.2147623E4,1.9692186E4,0E0,0E0,0E0,0E0,0E0,0E0,0E0,0E0],"parents":[2147483647,0,0,1,1,2,2,3,3,4,4,5,5,6,6],"right_children":[2,4,6,8,10,12,14,-1,-1,-1,-1,-1,-1,-1,-1],"split_conditions":[3.6239523E-1,9.224555E1,6.819643E1,8.417077E-1,7.260042E-1,1.2412487E0,1.475293E0,-9.834641E-2,-2.8159047E-2,-3.5411094E-3,2.7250537E-1,-6.3593164E-2,2.275613E-2,9.346127E-2,-1.050842E-1],"split_indices":[0,2,2,1,1,0,0,0,0,0,0,0,0,0,0],"split_type":[0,0,0,0,0,0,0,0,0,0,0,0,0,0,0],"sum_hessian":[2.1695277E5,4.854946E4,1.684033E5,2.0871201E4,2.7678262E4,1.3152811E5,3.6875184E4,2.0033688E4,8.375133E2,2.6894139E4,7.841232E2,4.531609E4,8.621203E4,3.0917988E4,5.9571953E3],"tree_param":{"num_deleted":"0","num_feature":"3","num_nodes":"15","size_leaf_vector":"1"}},{"base_weights":[-2.3538113E-2,-2.7648276E-1,1.1860629E-1,-7.418063E-1,2.5392434E-1,2.148028E-2,7.817E-1,-8.550585E-2,3.2712016E-2,1.1877111E-2,1.5304545E-1,-4.461313E-3,1.9522844E-1,1.6093728E-1,-1.03172176E-1],"categories":[],"categories_nodes":[],"categories_segments":[],"categories_sizes":[],"default_left":[0,0,0,0,0,0,0,0,0,0,0,0,0,0,0],"id":17,"left_children":[1,3,5,7,9,11,13,-1,-1,-1,-1,-1,-1,-1,-1],"loss_changes":[7.6942754E3,1.900272E4,8.823747E3,4.9651953E3,6.207461E3,1.5250417E4,2.6273863E4,0E0,0E0,0E0,0E0,0E0,0E0,0E0,0E0],"parents":[2147483647,0,0,1,1,2,2,3,3,4,4,5,5,6,6],"right_children":[2,4,6,8,10,12,14,-1,-1,-1,-1,-1,-1,-1,-1],"split_conditions":[6.2211597E-1,1.0144721E2,6.819643E1,7.476662E-1,5.268986E-1,8.684246E0,1.4224714E0,-8.550585E-2,3.2712016E-2,1.1877111E-2,1.5304545E-1,-4.461313E-3,1.9522844E-1,1.6093728E-1,-1.03172176E-1],"split_indices":[0,2,2,1,1,0,0,0,0,0,0,0,0,0,0],"split_type":[0,0,0,0,0,0,0,0,0,0,0,0,0,0,0],"sum_hessian":[2.1399744E5,7.6991266E4,1.3700619E5,4.1011594E4,3.5979668E4,1.1950311E5,1.750307E4,3.7082883E4,3.9287114E3,3.2535998E4,3.4436716E3,1.15548734E5,3.9543752E3,1.2017992E4,5.4850786E3],"tree_param":{"num_deleted":"0","num_feature":"3","num_nodes":"15","size_leaf_vector":"1"}},{"base_weights":[-2.239341E-2,-7.712584E-2,5.711117E-1,-5.5976474E-1,9.6361324E-2,1.7189938E-1,1.5777624E0,2.5971893E-2,-7.27396E-2,-2.3203644E-4,6.9861844E-2,-2.3112288E-2,9.909499E-2,1.0791041E-1,1.6671616E-1],"categories":[],"categories_nodes":[],"categories_segments":[],"categories_sizes":[],"default_left":[0,0,0,0,0,0,0,0,0,0,0,0,0,0,0],"id":18,"left_children":[1,3,5,7,9,11,13,-1,-1,-1,-1,-1,-1,-1,-1],"loss_changes":[6.865889E3,1.6203478E4,7.1714116E3,7.0291934E3,8.460058E3,4.21867E3,2.2410547E2,0E0,0E0,0E0,0E0,0E0,0E0,0E0,0E0],"parents":[2147483647,0,0,1,1,2,2,3,3,4,4,5,5,6,6],"right_children":[2,4,6,8,10,12,14,-1,-1,-1,-1,-1,-1,-1,-1],"split_conditions":[1.9285915E2,5.501633E-1,3.136441E-1,-5.912093E-1,6.819643E1,7.253127E2,2.1222067E2,2.5971893E-2,-7.27396E-2,-2.3203644E-4,6.9861844E-2,-2.3112288E-2,9.909499E-2,1.0791041E-1,1.6671616E-1],"split_indices":[2,0,0,1,2,2,2,0,0,0,0,0,0,0,0],"split_type":[0,0,0,0,0,0,0,0,0,0,0,0,0,0,0],"sum_hessian":[2.1135998E5,1.935151E5,1.7844895E4,5.1166996E4,1.4234811E5,1.2778452E4,5.0664414E3,8.689056E3,4.2477938E4,1.2230848E5,2.0039627E4,8.564781E3,4.2136714E3,7.7221014E2,4.2942314E3],"tree_param":{"num_deleted":"0","num_feature":"3","num_nodes":"15","size_leaf_vector":"1"}},{"base_weights":[-2.075643E-2,-2.1979477E-1,1.2672426E-1,-9.91671E-1,1.3405703E-1,5.612484E-1,2.4071908E-2,-1.01293944E-1,-7.033586E-2,-2.9268328E-4,1.9033758E-1,-7.7423476E-2,2.2689901E-1,2.7634043E-2,-1.8822204E-2],"categories":[],"categories_nodes":[],"categories_segments":[],"categories_sizes":[],"default_left":[0,0,0,0,0,0,0,0,0,0,0,0,0,0,0],"id":19,"left_children":[1,3,5,7,9,11,13,-1,-1,-1,-1,-1,-1,-1,-1],"loss_changes":[6.148628E3,2.4349254E4,5.366585E3,1.7111914E2,1.4815297E4,5.243756E4,5.212221E3,0E0,0E0,0E0,0E0,0E0,0E0,0E0,0E0],"parents":[2147483647,0,0,1,1,2,2,3,3,4,4,5,5,6,6],"right_children":[2,4,6,8,10,12,14,-1,-1,-1,-1,-1,-1,-1,-1],"split_conditions":[8.4117806E-1,6.321862E1,5.1273262E1,5.9027954E1,6.755816E-1,1.8915339E0,1.7668248E0,-1.01293944E-1,-7.033586E-2,-2.9268328E-4,1.9033758E-1,-7.7423476E-2,2.2689901E-1,2.7634043E-2,-1.8822204E-2],"split_indices":[0,2,2,2,1,0,0,0,0,0,0,0,0,0,0],"split_type":[0,0,0,0,0,0,0,0,0,0,0,0,0,0,0],"sum_hessian":[2.0946056E5,8.914753E4,1.2031303E5,2.8021312E4,6.112622E4,2.2990502E4,9.732253E4,2.6093887E4,1.9274259E3,5.6734715E4,4.391506E3,1.2901699E4,1.0088803E4,4.4473934E4,5.2848598E4],"tree_param":{"num_deleted":"0","num_feature":"3","num_nodes":"15","size_leaf_vector":"1"}},{"base_weights":[-2.06969E-2,-4.0266016E-1,5.2265044E-2,-9.748017E-1,-6.280526E-2,1.3871465E-2,1.5523573E0,-4.4278283E-2,-9.94566E-2,-2.6719425E-2,7.737702E-2,-7.947256E-3,3.3051077E-2,1.16473615E-1,1.6495217E-1],"categories":[],"categories_nodes":[],"categories_segments":[],"categories_sizes":[],"default_left":[0,0,0,0,0,0,0,0,0,0,0,0,0,0,0],"id":20,"left_children":[1,3,5,7,9,11,13,-1,-1,-1,-1,-1,-1,-1,-1],"loss_changes":[5.8024434E3,6.492952E3,1.0068176E4,1.304043E2,3.5823616E3,5.0379717E3,1.6238477E2,0E0,0E0,0E0,0E0,0E0,0E0,0E0,0E0],"parents":[2147483647,0,0,1,1,2,2,3,3,4,4,5,5,6,6],"right_children":[2,4,6,8,10,12,14,-1,-1,-1,-1,-1,-1,-1,-1],"split_conditions":[2.8174725E-1,9.224555E1,2.3687405E2,-8.562007E-1,7.253127E2,6.819643E1,2.6985034E2,-4.4278283E-2,-9.94566E-2,-2.6719425E-2,7.737702E-2,-7.947256E-3,3.3051077E-2,1.16473615E-1,1.6495217E-1],"split_indices":[0,2,2,1,2,2,2,0,0,0,0,0,0,0,0],"split_type":[0,0,0,0,0,0,0,0,0,0,0,0,0,0,0],"sum_hessian":[2.082041E5,3.3391523E4,1.7481256E5,1.2442634E4,2.094889E4,1.7045102E5,4.361539E3,4.4652005E2,1.1996113E4,1.683621E4,4.112679E3,1.3164372E5,3.8807305E4,8.7677563E2,3.4847634E3],"tree_param":{"num_deleted":"0","num_feature":"3","num_nodes":"15","size_leaf_vector":"1"}},{"base_weights":[-1.9099936E-2,-2.1820354E-1,1.12474635E-1,-9.8597425E-1,8.1833065E-2,4.320087E-1,3.395811E-2,-1.00794435E-1,-6.62919E-2,1.5227346E-1,-6.013784E-3,-8.268421E-2,1.7413177E-1,2.3977883E-2,-1.8554023E-2],"categories":[],"categories_nodes":[],"categories_segments":[],"categories_sizes":[],"default_left":[0,0,0,0,0,0,0,0,0,0,0,0,0,0,0],"id":21,"left_children":[1,3,5,7,9,11,13,-1,-1,-1,-1,-1,-1,-1,-1],"loss_changes":[5.40424E3,1.8908518E4,3.11626E3,1.630293E2,1.2073475E4,4.038412E4,4.504699E3,0E0,0E0,0E0,0E0,0E0,0E0,0E0,0E0],"parents":[2147483647,0,0,1,1,2,2,3,3,4,4,5,5,6,6],"right_children":[2,4,6,8,10,12,14,-1,-1,-1,-1,-1,-1,-1,-1],"split_conditions":[7.8314406E-1,6.491639E1,5.1273262E1,6.1152378E1,-6.408909E-1,1.805991E0,1.8915339E0,-1.00794435E-1,-6.62919E-2,1.5227346E-1,-6.013784E-3,-8.268421E-2,1.7413177E-1,2.3977883E-2,-1.8554023E-2],"split_indices":[0,2,2,2,1,0,0,0,0,0,0,0,0,0,0],"split_type":[0,0,0,0,0,0,0,0,0,0,0,0,0,0,0],"sum_hessian":[2.0629064E5,8.208137E4,1.2420927E5,2.3062895E4,5.901847E4,2.4499715E4,9.9709555E4,2.1592342E4,1.4705516E3,5.292609E3,5.372586E4,1.2490726E4,1.200899E4,5.1457984E4,4.825157E4],"tree_param":{"num_deleted":"0","num_feature":"3","num_nodes":"15","size_leaf_vector":"1"}},{"base_weights":[-1.8751819E-2,-7.312602E-2,4.2183554E-1,-5.5548626E-1,7.65331E-2,1.3596156E-1,1.4004809E0,-7.356272E-2,3.2978594E-2,6.142286E-5,5.6225277E-2,2.577236E-1,2.0995978E-3,2.097429E-1,1.3463347E-1],"categories":[],"categories_nodes":[],"categories_segments":[],"categories_sizes":[],"default_left":[0,0,0,0,0,0,0,0,0,0,0,0,0,0,0],"id":22,"left_children":[1,3,5,7,9,11,13,-1,-1,-1,-1,-1,-1,-1,-1],"loss_changes":[4.9121724E3,1.3176032E4,6.30169E3,6.89266E3,5.136742E3,4.893024E3,1.8934375E2,0E0,0E0,0E0,0E0,0E0,0E0,0E0,0E0],"parents":[2147483647,0,0,1,1,2,2,3,3,4,4,5,5,6,6],"right_children":[2,4,6,8,10,12,14,-1,-1,-1,-1,-1,-1,-1,-1],"split_conditions":[1.5395627E2,5.6698686E-1,3.5853383E-1,6.2600267E-1,6.819643E1,-4.9983165E-1,-4.1562122E-1,-7.356272E-2,3.2978594E-2,6.142286E-5,5.6225277E-2,2.577236E-1,2.0995978E-3,2.097429E-1,1.3463347E-1],"split_indices":[2,0,0,1,2,1,1,0,0,0,0,0,0,0,0],"split_type":[0,0,0,0,0,0,0,0,0,0,0,0,0,0,0],"sum_hessian":[2.0504247E5,1.8251819E5,2.2524281E4,4.321878E4,1.392994E5,1.7433025E4,5.091256E3,3.5911457E4,7.3073257E3,1.20470625E5,1.882878E4,7.830782E2,1.6649947E4,3.6430762E2,4.726948E3],"tree_param":{"num_deleted":"0","num_feature":"3","num_nodes":"15","size_leaf_vector":"1"}},{"base_weights":[-1.7396318E-2,-3.707861E-1,4.359468E-2,-9.6922123E-1,-6.6133216E-2,9.151922E-3,1.3505273E0,-9.877823E-2,-3.0837242E-2,-2.0407228E-2,9.2111744E-2,3.752208E-2,-6.475176E-3,9.35416E-2,1.6006854E-1],"categories":[],"categories_nodes":[],"categories_segments":[],"categories_sizes":[],"default_left":[0,0,0,0,0,0,0,0,0,0,0,0,0,0,0],"id":23,"left_children":[1,3,5,7,9,11,13,-1,-1,-1,-1,-1,-1,-1,-1],"loss_changes":[4.384137E3,5.458178E3,7.808541E3,1.23578125E2,2.7020032E3,4.572525E3,4.610376E2,0E0,0E0,0E0,0E0,0E0,0E0,0E0,0E0],"parents":[2147483647,0,0,1,1,2,2,3,3,4,4,5,5,6,6],"right_children":[2,4,6,8,10,12,14,-1,-1,-1,-1,-1,-1,-1,-1],"split_conditions":[2.7144364E-1,9.224555E1,2.3687405E2,8.707901E-1,1.4149019E3,-5.7008487E-1,3.157351E2,-9.877823E-2,-3.0837242E-2,-2.0407228E-2,9.2111744E-2,3.752208E-2,-6.475176E-3,9.35416E-2,1.6006854E-1],"split_indices":[0,2,2,1,2,1,2,0,0,0,0,0,0,0,0],"split_type":[0,0,0,0,0,0,0,0,0,0,0,0,0,0,0],"sum_hessian":[2.0340455E5,2.993753E4,1.7346702E5,1.0098562E4,1.9838967E4,1.6901386E5,4.4531655E3,9.822193E3,2.763678E2,1.7407568E4,2.4313992E3,2.8389145E4,1.4062472E5,1.6762849E3,2.7768809E3],"tree_param":{"num_deleted":"0","num_feature":"3","num_nodes":"15","size_leaf_vector":"1"}},{"base_weights":[-1.601466E-2,-8.548417E-2,2.917092E-1,2.4160117E-1,-1.966638E-1,7.0662245E-2,8.606353E-1,3.4931488E-3,7.721541E-2,-4.8121404E-2,5.2628433E-3,-8.697594E-2,2.7197227E-2,1.1459265E-1,-1.1043664E-1],"categories":[],"categories_nodes":[],"categories_segments":[],"categories_sizes":[],"default_left":[0,0,0,0,0,0,0,0,0,0,0,0,0,0,0],"id":24,"left_children":[1,3,5,7,9,11,13,-1,-1,-1,-1,-1,-1,-1,-1],"loss_changes":[4.3271436E3,6.0052646E3,4.688251E3,4.593445E3,8.742541E3,5.0832983E3,5.8491143E3,0E0,0E0,0E0,0E0,0E0,0E0,0E0,0E0],"parents":[2147483647,0,0,1,1,2,2,3,3,4,4,5,5,6,6],"right_children":[2,4,6,8,10,12,14,-1,-1,-1,-1,-1,-1,-1,-1],"split_conditions":[5.268986E-1,-4.9280837E-1,6.819643E1,6.819643E1,1.0081998E0,7.6533514E-1,1.1141019E0,3.4931488E-3,7.721541E-2,-4.8121404E-2,5.2628433E-3,-8.697594E-2,2.7197227E-2,1.1459265E-1,-1.1043664E-1],"split_indices":[1,1,2,2,0,0,0,0,0,0,0,0,0,0,0],"split_type":[0,0,0,0,0,0,0,0,0,0,0,0,0,0,0],"sum_hessian":[2.024143E5,1.6513528E5,3.727902E4,4.1891434E4,1.2324384E5,2.684857E4,1.0430451E4,3.0148543E4,1.174289E4,5.755162E4,6.569222E4,4.733352E3,2.2115217E4,9.108446E3,1.3220045E3],"tree_param":{"num_deleted":"0","num_feature":"3","num_nodes":"15","size_leaf_vector":"1"}},{"base_weights":[-1.4967323E-2,-6.20497E-2,4.4295192E-1,-5.2639365E-1,5.715129E-2,1.5429206E-1,1.3721448E0,2.3172168E-2,-7.0054755E-2,-1.9696483E-3,4.6270467E-2,2.0060178E-3,2.260576E-1,1.3173287E-1,2.080947E-1],"categories":[],"categories_nodes":[],"categories_segments":[],"categories_sizes":[],"default_left":[0,0,0,0,0,0,0,0,0,0,0,0,0,0,0],"id":25,"left_children":[1,3,5,7,9,11,13,-1,-1,-1,-1,-1,-1,-1,-1],"loss_changes":[4.3638926E3,1.0158818E4,5.061352E3,4.9500723E3,4.5516685E3,4.0710393E3,1.7104102E2,0E0,0E0,0E0,0E0,0E0,0E0,0E0,0E0],"parents":[2147483647,0,0,1,1,2,2,3,3,4,4,5,5,6,6],"right_children":[2,4,6,8,10,12,14,-1,-1,-1,-1,-1,-1,-1,-1],"split_conditions":[1.7713083E2,4.92978E-1,3.3205485E-1,-6.1263216E-1,6.819643E1,4.424355E-1,3.936442E-1,2.3172168E-2,-7.0054755E-2,-1.9696483E-3,4.6270467E-2,2.0060178E-3,2.260576E-1,1.3173287E-1,2.080947E-1],"split_indices":[2,0,0,1,2,1,1,0,0,0,0,0,0,0,0],"split_type":[0,0,0,0,0,0,0,0,0,0,0,0,0,0,0],"sum_hessian":[2.0240531E5,1.8353542E5,1.8869895E4,3.7490164E4,1.4604525E5,1.4398174E4,4.471721E3,7.00334E3,3.0486824E4,1.2278066E5,2.3264594E4,1.3536512E4,8.616621E2,4.1533735E3,3.183474E2],"tree_param":{"num_deleted":"0","num_feature":"3","num_nodes":"15","size_leaf_vector":"1"}},{"base_weights":[-1.3864179E-2,-7.100141E-2,3.2590646E-1,-1.22578E-1,4.5306236E-1,1.0734028E-1,9.1261554E-1,-5.5964556E-2,3.5351266E-3,-5.7237547E-2,7.491287E-2,-9.1814354E-2,2.7593384E-2,1.2150234E-1,-1.1094137E-1],"categories":[],"categories_nodes":[],"categories_segments":[],"categories_sizes":[],"default_left":[0,0,0,0,0,0,0,0,0,0,0,0,0,0,0],"id":26,"left_children":[1,3,5,7,9,11,13,-1,-1,-1,-1,-1,-1,-1,-1],"loss_changes":[3.8998718E3,4.648179E3,3.7082515E3,1.0806572E4,4.6782827E3,3.6431467E3,4.8007456E3,0E0,0E0,0E0,0E0,0E0,0E0,0E0,0E0],"parents":[2147483647,0,0,1,1,2,2,3,3,4,4,5,5,6,6],"right_children":[2,4,6,8,10,12,14,-1,-1,-1,-1,-1,-1,-1,-1],"split_conditions":[6.046998E-1,2.1222067E2,6.819643E1,6.353123E-1,8.294827E-2,6.9197315E-1,1.0221285E0,-5.5964556E-2,3.5351266E-3,-5.7237547E-2,7.491287E-2,-9.1814354E-2,2.7593384E-2,1.2150234E-1,-1.1094137E-1],"split_indices":[1,2,2,0,0,0,0,0,0,0,0,0,0,0,0],"split_type":[0,0,0,0,0,0,0,0,0,0,0,0,0,0,0],"sum_hessian":[2.0088177E5,1.7196433E5,2.8917441E4,1.5655727E5,1.5407071E4,2.106959E4,7.8478516E3,4.1554125E4,1.1500313E5,3.4515513E3,1.19555205E4,2.974219E3,1.809537E4,6.8271978E3,1.02065375E3],"tree_param":{"num_deleted":"0","num_feature":"3","num_nodes":"15","size_leaf_vector":"1"}},{"base_weights":[-1.3026475E-2,-6.442869E-2,3.330468E-1,-3.2666707E-1,3.0781364E-1,2.82285E0,-7.912906E-1,-7.380119E-2,1.5006314E-2,1.0833308E-3,1.1333559E-1,2.4712904E-1,4.0284514E-1,-1.0080587E-1,-8.0171594E-4],"categories":[],"categories_nodes":[],"categories_segments":[],"categories_sizes":[],"default_left":[0,0,0,0,0,0,0,0,0,0,0,0,0,0,0],"id":27,"left_children":[1,3,5,7,9,11,13,-1,-1,-1,-1,-1,-1,-1,-1],"loss_changes":[3.5591545E3,1.7005082E4,7.243419E4,2.0042164E4,1.7652316E4,3.4017773E3,3.0265996E3,0E0,0E0,0E0,0E0,0E0,0E0,0E0,0E0],"parents":[2147483647,0,0,1,1,2,2,3,3,4,4,5,5,6,6],"right_children":[2,4,6,8,10,12,14,-1,-1,-1,-1,-1,-1,-1,-1],"split_conditions":[3.8558187E0,6.1572186E1,5.815798E1,1.475293E0,6.4886993E-1,7.8461194E0,1.1293073E1,-7.380119E-2,1.5006314E-2,1.0833308E-3,1.1333559E-1,2.4712904E-1,4.0284514E-1,-1.0080587E-1,-8.0171594E-4],"split_indices":[0,2,2,0,0,0,0,0,0,0,0,0,0,0,0],"split_type":[0,0,0,0,0,0,0,0,0,0,0,0,0,0,0],"sum_hessian":[2.0007469E5,1.7420139E5,2.5873297E4,1.0220198E5,7.199942E4,8.048557E3,1.782474E4,5.4863055E4,4.733892E4,5.2951633E4,1.9047793E4,6.2337993E3,1.8147578E3,1.3960842E4,3.8638982E3],"tree_param":{"num_deleted":"0","num_feature":"3","num_nodes":"15","size_leaf_vector":"1"}},{"base_weights":[-1.4042779E-2,-6.409727E-2,3.3756283E-1,-4.4947273E-1,6.318507E-2,1.06325805E-1,1.2616155E0,6.376462E-2,-6.1154705E-2,2.1118803E-3,4.1570626E-2,1.5352051E-1,-4.1816398E-3,1.1932411E-1,1.8788247E-1],"categories":[],"categories_nodes":[],"categories_segments":[],"categories_sizes":[],"default_left":[0,0,0,0,0,0,0,0,0,0,0,0,0,0,0],"id":28,"left_children":[1,3,5,7,9,11,13,-1,-1,-1,-1,-1,-1,-1,-1],"loss_changes":[3.4853857E3,8.503588E3,5.273265E3,7.5840967E3,1.9325254E3,4.17876E3,2.0621729E2,0E0,0E0,0E0,0E0,0E0,0E0,0E0,0E0],"parents":[2147483647,0,0,1,1,2,2,3,3,4,4,5,5,6,6],"right_children":[2,4,6,8,10,12,14,-1,-1,-1,-1,-1,-1,-1,-1],"split_conditions":[1.3717906E2,6.9963074E-1,3.7822044E-1,-7.050231E-1,6.819643E1,-4.5073345E-1,4.2150497E-1,6.376462E-2,-6.1154705E-2,2.1118803E-3,4.1570626E-2,1.5352051E-1,-4.1816398E-3,1.1932411E-1,1.8788247E-1],"split_indices":[2,0,0,1,2,1,1,0,0,0,0,0,0,0,0],"split_type":[0,0,0,0,0,0,0,0,0,0,0,0,0,0,0],"sum_hessian":[1.9803736E5,1.7335886E5,2.4678508E4,4.3040793E4,1.3031806E5,1.9739873E4,4.938635E3,5.583869E3,3.7456926E4,1.1642603E5,1.3892031E4,1.8534441E3,1.788643E4,4.4487373E3,4.8989755E2],"tree_param":{"num_deleted":"0","num_feature":"3","num_nodes":"15","size_leaf_vector":"1"}},{"base_weights":[-1.29924305E-2,-7.46085E-2,2.8213507E-1,2.0447826E-1,-1.8313569E-1,8.6571634E-2,7.7268535E-1,1.1714541E-2,1.1937519E-1,-4.4521026E-2,2.8467614E-3,-9.087447E-2,2.1348955E-2,1.00783825E-1,-1.09662585E-1],"categories":[],"categories_nodes":[],"categories_segments":[],"categories_sizes":[],"default_left":[0,0,0,0,0,0,0,0,0,0,0,0,0,0,0],"id":29,"left_children":[1,3,5,7,9,11,13,-1,-1,-1,-1,-1,-1,-1,-1],"loss_changes":[3.5805608E3,4.9338003E3,3.2624785E3,3.9402412E3,6.5041475E3,3.0718813E3,4.262025E3,0E0,0E0,0E0,0E0,0E0,0E0,0E0,0E0],"parents":[2147483647,0,0,1,1,2,2,3,3,4,4,5,5,6,6],"right_children":[2,4,6,8,10,12,14,-1,-1,-1,-1,-1,-1,-1,-1],"split_conditions":[5.551984E-1,-4.5775095E-1,6.819643E1,1.150234E2,1.0365124E0,6.9197315E-1,1.0514076E0,1.1714541E-2,1.1937519E-1,-4.4521026E-2,2.8467614E-3,-9.087447E-2,2.1348955E-2,1.00783825E-1,-1.09662585E-1],"split_indices":[1,1,2,2,0,0,0,0,0,0,0,0,0,0,0],"split_type":[0,0,0,0,0,0,0,0,0,0,0,0,0,0,0],"sum_hessian":[1.9689861E5,1.6289127E5,3.4007336E4,4.560733E4,1.17283945E5,2.4315045E4,9.692291E3,4.190875E4,3.6985764E3,5.239307E4,6.4890875E4,2.749188E3,2.1565857E4,8.609683E3,1.0826077E3],"tree_param":{"num_deleted":"0","num_feature":"3","num_nodes":"15","size_leaf_vector":"1"}},{"base_weights":[-1.2092778E-2,-4.1326046E-2,6.543605E-1,-4.4905162E-1,4.059864E-2,-6.8649554E-1,1.0627937E0,-9.655783E-2,-2.183255E-2,9.670009E-4,1.2739041E-1,-7.289093E-2,9.194851E-2,9.599387E-2,3.832545E-1],"categories":[],"categories_nodes":[],"categories_segments":[],"categories_sizes":[],"default_left":[0,0,0,0,0,0,0,0,0,0,0,0,0,0,0],"id":30,"left_children":[1,3,5,7,9,11,13,-1,-1,-1,-1,-1,-1,-1,-1],"loss_changes":[3.8372473E3,6.302486E3,4.5332505E3,3.762038E3,5.9929805E3,1.3233795E2,1.8037046E3,0E0,0E0,0E0,0E0,0E0,0E0,0E0,0E0],"parents":[2147483647,0,0,1,1,2,2,3,3,4,4,5,5,6,6],"right_children":[2,4,6,8,10,12,14,-1,-1,-1,-1,-1,-1,-1,-1],"split_conditions":[3.841419E2,3.742337E-1,6.117202E-2,8.541313E1,1.4499028E2,3.5860556E-1,3.308019E-1,-9.655783E-2,-2.183255E-2,9.670009E-4,1.2739041E-1,-7.289093E-2,9.194851E-2,9.599387E-2,3.832545E-1],"split_indices":[2,0,0,2,2,1,1,0,0,0,0,0,0,0,0],"split_type":[0,0,0,0,0,0,0,0,0,0,0,0,0,0,0],"sum_hessian":[1.969552E5,1.8867989E5,8.275306E3,3.1567785E4,1.5711211E5,1.9320032E3,6.3433027E3,9.746068E3,2.1821715E4,1.5326945E5,3.8426582E3,1.8828242E3,4.917901E1,6.117476E3,2.2582672E2],"tree_param":{"num_deleted":"0","num_feature":"3","num_nodes":"15","size_leaf_vector":"1"}},{"base_weights":[-1.11808255E-2,-3.5046954E-2,6.876991E-1,-4.667204E-1,3.0416913E-2,-7.179267E-1,1.1341982E0,-9.681353E-2,-2.4253005E-2,7.1961613E-4,1.1492472E-1,1.6808502E-1,-7.4671976E-2,4.520741E-1,1.0609639E-1],"categories":[],"categories_nodes":[],"categories_segments":[],"categories_sizes":[],"default_left":[0,0,0,0,0,0,0,0,0,0,0,0,0,0,0],"id":31,"left_children":[1,3,5,7,9,11,13,-1,-1,-1,-1,-1,-1,-1,-1],"loss_changes":[3.263445E3,5.3464526E3,4.0556987E3,2.8003462E3,4.2680425E3,1.0887384E2,1.2113691E3,0E0,0E0,0E0,0E0,0E0,0E0,0E0,0E0],"parents":[2147483647,0,0,1,1,2,2,3,3,4,4,5,5,6,6],"right_children":[2,4,6,8,10,12,14,-1,-1,-1,-1,-1,-1,-1,-1],"split_conditions":[4.9919733E2,3.0642107E-1,5.480779E-2,8.863144E1,1.9285915E2,-3.5978904E-1,-3.249818E-1,-9.681353E-2,-2.4253005E-2,7.1961613E-4,1.1492472E-1,1.6808502E-1,-7.4671976E-2,4.520741E-1,1.0609639E-1],"split_indices":[2,0,0,2,2,1,1,0,0,0,0,0,0,0,0],"split_type":[0,0,0,0,0,0,0,0,0,0,0,0,0,0,0],"sum_hessian":[1.9565294E5,1.8919311E5,6.459827E3,2.4912457E4,1.6428066E5,1.5571499E3,4.9026772E3,7.69618E3,1.7216275E4,1.609414E5,3.3392505E3,1.7788616E1,1.5393612E3,1.02491165E2,4.8001865E3],"tree_param":{"num_deleted":"0","num_feature":"3","num_nodes":"15","size_leaf_vector":"1"}},{"base_weights":[-1.0319572E-2,-7.806325E-2,2.4024619E-1,2.3330866E-1,-1.8334985E-1,1.6870177E-1,1.5525187E0,5.0295442E-3,6.9481656E-2,-4.533198E-2,1.7238649E-3,-4.391365E-2,2.462898E-2,-3.0883122E-2,1.9698471E-1],"categories":[],"categories_nodes":[],"categories_segments":[],"categories_sizes":[],"default_left":[0,0,0,0,0,0,0,0,0,0,0,0,0,0,0],"id":32,"left_children":[1,3,5,7,9,11,13,-1,-1,-1,-1,-1,-1,-1,-1],"loss_changes":[3.3035862E3,5.022538E3,3.8885278E3,3.2698042E3,6.1999824E3,1.852595E3,1.6639937E3,0E0,0E0,0E0,0E0,0E0,0E0,0E0,0E0],"parents":[2147483647,0,0,1,1,2,2,3,3,4,4,5,5,6,6],"right_children":[2,4,6,8,10,12,14,-1,-1,-1,-1,-1,-1,-1,-1],"split_conditions":[4.8441267E-1,-5.208165E-1,1.3049452E2,6.819643E1,1.0081998E0,3.0642107E-1,6.706228E-2,5.0295442E-3,6.9481656E-2,-4.533198E-2,1.7238649E-3,-4.391365E-2,2.462898E-2,-3.0883122E-2,1.9698471E-1],"split_indices":[1,1,2,2,0,0,0,0,0,0,0,0,0,0,0],"split_type":[0,0,0,0,0,0,0,0,0,0,0,0,0,0,0],"sum_hessian":[1.9462134E5,1.5320192E5,4.141942E4,3.871271E4,1.1448921E5,3.9279074E4,2.1403467E3,2.7720941E4,1.0991768E4,4.8803637E4,6.568557E4,4.445737E3,3.4833336E4,3.920412E2,1.7483054E3],"tree_param":{"num_deleted":"0","num_feature":"3","num_nodes":"15","size_leaf_vector":"1"}},{"base_weights":[-9.586529E-3,-3.2616887E-2,6.714688E-1,-4.2100415E-1,2.7579373E-2,-6.696551E-1,1.052984E0,-9.512472E-2,-2.0530855E-2,2.9915443E-4,1.1337005E-1,-7.050565E-2,1.3173276E-1,9.4216384E-2,2.7470806E-1],"categories":[],"categories_nodes":[],"categories_segments":[],"categories_sizes":[],"default_left":[0,0,0,0,0,0,0,0,0,0,0,0,0,0,0],"id":33,"left_children":[1,3,5,7,9,11,13,-1,-1,-1,-1,-1,-1,-1,-1],"loss_changes":[3.0549585E3,4.4046753E3,3.2604094E3,2.891295E3,4.4363413E3,1.0022156E2,9.286553E2,0E0,0E0,0E0,0E0,0E0,0E0,0E0,0E0],"parents":[2147483647,0,0,1,1,2,2,3,3,4,4,5,5,6,6],"right_children":[2,4,6,8,10,12,14,-1,-1,-1,-1,-1,-1,-1,-1],"split_conditions":[4.9919733E2,3.2098243E-1,5.480779E-2,8.863144E1,1.7713083E2,3.5153848E-1,2.754132E-1,-9.512472E-2,-2.0530855E-2,2.9915443E-4,1.1337005E-1,-7.050565E-2,1.3173276E-1,9.4216384E-2,2.7470806E-1],"split_indices":[2,0,0,2,2,1,1,0,0,0,0,0,0,0,0],"split_type":[0,0,0,0,0,0,0,0,0,0,0,0,0,0,0],"sum_hessian":[1.947677E5,1.8839784E5,6.3698516E3,2.5280654E4,1.631172E5,1.4105724E3,4.9592793E3,7.309167E3,1.7971488E4,1.5957111E5,3.5460837E3,1.3865145E3,2.4057901E1,4.6562446E3,3.0303445E2],"tree_param":{"num_deleted":"0","num_feature":"3","num_nodes":"15","size_leaf_vector":"1"}},{"base_weights":[-8.8373115E-3,-5.3167943E-2,3.4615973E-1,2.2290315E-1,-1.2982775E-1,1.3210143E-1,9.586908E-1,1.3955592E-2,1.13850705E-1,-3.5713468E-2,2.0047086E-3,-9.267035E-2,2.321097E-2,1.2516074E-1,-1.1474102E-1],"categories":[],"categories_nodes":[],"categories_segments":[],"categories_sizes":[],"default_left":[0,0,0,0,0,0,0,0,0,0,0,0,0,0,0],"id":34,"left_children":[1,3,5,7,9,11,13,-1,-1,-1,-1,-1,-1,-1,-1],"loss_changes":[3.0491216E3,3.6452986E3,2.8200796E3,2.856565E3,4.592641E3,1.6880989E3,3.4375977E3,0E0,0E0,0E0,0E0,0E0,0E0,0E0,0E0],"parents":[2147483647,0,0,1,1,2,2,3,3,4,4,5,5,6,6],"right_children":[2,4,6,8,10,12,14,-1,-1,-1,-1,-1,-1,-1,-1],"split_conditions":[6.755816E-1,-5.3478855E-1,6.819643E1,1.0750907E2,9.419561E-1,6.286519E-1,9.675213E-1,1.3955592E-2,1.13850705E-1,-3.5713468E-2,2.0047086E-3,-9.267035E-2,2.321097E-2,1.2516074E-1,-1.1474102E-1],"split_indices":[1,1,2,2,0,0,0,0,0,0,0,0,0,0,0],"split_type":[0,0,0,0,0,0,0,0,0,0,0,0,0,0,0],"sum_hessian":[1.937498E5,1.7224177E5,2.1508023E4,3.743328E4,1.3480848E5,1.5939084E4,5.5689395E3,3.43111E4,3.1221802E3,5.35662E4,8.12423E4,1.3748666E3,1.4564217E4,4.889336E3,6.796032E2],"tree_param":{"num_deleted":"0","num_feature":"3","num_nodes":"15","size_leaf_vector":"1"}},{"base_weights":[-8.2550775E-3,-3.620379E-2,5.294408E-1,-3.8589516E-1,3.2386743E-2,1.9237728E-1,1.4177455E0,-9.750446E-2,-1.8750882E-2,1.3522318E-4,1.1698433E-1,2.9609436E-1,5.1863506E-3,2.055798E-1,1.3735579E-1],"categories":[],"categories_nodes":[],"categories_segments":[],"categories_sizes":[],"default_left":[0,0,0,0,0,0,0,0,0,0,0,0,0,0,0],"id":35,"left_children":[1,3,5,7,9,11,13,-1,-1,-1,-1,-1,-1,-1,-1],"loss_changes":[2.9143298E3,4.4216343E3,2.8687368E3,3.5329985E3,5.4403965E3,2.7025586E3,7.148486E1,0E0,0E0,0E0,0E0,0E0,0E0,0E0,0E0],"parents":[2147483647,0,0,1,1,2,2,3,3,4,4,5,5,6,6],"right_children":[2,4,6,8,10,12,14,-1,-1,-1,-1,-1,-1,-1,-1],"split_conditions":[3.157351E2,4.0684465E-1,2.5429755E-1,8.131134E1,1.2461424E2,-3.528081E-1,-3.1813088E-1,-9.750446E-2,-1.8750882E-2,1.3522318E-4,1.1698433E-1,2.9609436E-1,5.1863506E-3,2.055798E-1,1.3735579E-1],"split_indices":[2,0,0,2,2,1,1,0,0,0,0,0,0,0,0],"split_type":[0,0,0,0,0,0,0,0,0,0,0,0,0,0,0],"sum_hessian":[1.9392555E5,1.843445E5,9.581047E3,3.0228346E4,1.5411616E5,6.9464585E3,2.6345889E3,7.613768E3,2.2614578E4,1.5002388E5,4.0922695E3,3.345569E2,6.611902E3,1.6768953E2,2.4668992E3],"tree_param":{"num_deleted":"0","num_feature":"3","num_nodes":"15","size_leaf_vector":"1"}},{"base_weights":[-7.58841E-3,-7.457941E-2,1.9657812E-1,1.5764177E-1,-2.0318331E-1,1.3360842E-1,1.4847167E0,8.278779E-3,9.451904E-2,-4.784378E-2,1.4279038E-3,2.366007E-3,4.486896E-2,-2.5461275E-2,1.7833966E-1],"categories":[],"categories_nodes":[],"categories_segments":[],"categories_sizes":[],"default_left":[0,0,0,0,0,0,0,0,0,0,0,0,0,0,0],"id":36,"left_children":[1,3,5,7,9,11,13,-1,-1,-1,-1,-1,-1,-1,-1],"loss_changes":[2.6355596E3,4.3330493E3,3.8613455E3,3.0484414E3,5.589341E3,1.5723817E3,1.1530493E3,0E0,0E0,0E0,0E0,0E0,0E0,0E0,0E0],"parents":[2147483647,0,0,1,1,2,2,3,3,4,4,5,5,6,6],"right_children":[2,4,6,8,10,12,14,-1,-1,-1,-1,-1,-1,-1,-1],"split_conditions":[4.2842E-1,-4.0165946E-1,1.4499028E2,1.1954893E2,1.0981139E0,6.819643E1,6.117202E-2,8.278779E-3,9.451904E-2,-4.784378E-2,1.4279038E-3,2.366007E-3,4.486896E-2,-2.5461275E-2,1.7833966E-1],"split_indices":[1,1,2,2,0,2,0,0,0,0,0,0,0,0,0],"split_type":[0,0,0,0,0,0,0,0,0,0,0,0,0,0,0],"sum_hessian":[1.9269356E5,1.45088E5,4.7605555E4,5.1711633E4,9.3376375E4,4.5387906E4,2.2176506E3,4.7224227E4,4.4874062E3,4.121147E4,5.2164902E4,3.364758E4,1.1740327E4,3.250289E2,1.8926218E3],"tree_param":{"num_deleted":"0","num_feature":"3","num_nodes":"15","size_leaf_vector":"1"}},{"base_weights":[-7.0555876E-3,-2.9418586E-2,6.6785884E-1,-4.236849E-1,2.0028261E-2,-5.466136E-1,1.0089227E0,-9.5681705E-2,-2.395865E-2,-6.4969915E-3,2.9833287E-2,-5.8496267E-2,1.7042531E-1,7.1596876E-2,1.6191569E-1],"categories":[],"categories_nodes":[],"categories_segments":[],"categories_sizes":[],"default_left":[0,0,0,0,0,0,0,0,0,0,0,0,0,0,0],"id":37,"left_children":[1,3,5,7,9,11,13,-1,-1,-1,-1,-1,-1,-1,-1],"loss_changes":[2.9084824E3,3.6362976E3,2.5605254E3,2.0398745E3,3.9205964E3,1.180224E2,8.615156E2,0E0,0E0,0E0,0E0,0E0,0E0,0E0,0E0],"parents":[2147483647,0,0,1,1,2,2,3,3,4,4,5,5,6,6],"right_children":[2,4,6,8,10,12,14,-1,-1,-1,-1,-1,-1,-1,-1],"split_conditions":[4.9919733E2,2.887332E-1,6.117202E-2,8.863144E1,6.819643E1,3.5860556E-1,1.4149019E3,-9.5681705E-2,-2.395865E-2,-6.4969915E-3,2.9833287E-2,-5.8496267E-2,1.7042531E-1,7.1596876E-2,1.6191569E-1],"split_indices":[2,0,0,2,2,1,2,0,0,0,0,0,0,0,0],"split_type":[0,0,0,0,0,0,0,0,0,0,0,0,0,0,0],"sum_hessian":[1.9270038E5,1.8652103E5,6.1793374E3,2.078483E4,1.657362E5,1.3547375E3,4.8246E3,5.333964E3,1.5450866E4,1.2696121E5,3.877499E4,1.3327706E3,2.1966944E1,3.2611833E3,1.5634167E3],"tree_param":{"num_deleted":"0","num_feature":"3","num_nodes":"15","size_leaf_vector":"1"}},{"base_weights":[-6.5878765E-3,-5.011225E-2,2.8704372E-1,2.9616523E-1,-1.0533172E-1,1.0971671E-1,7.59382E-1,1.357795E-2,9.514552E-2,-3.132562E-2,2.417011E-3,-9.209623E-2,1.8978896E-2,9.918199E-2,-1.13386564E-1],"categories":[],"categories_nodes":[],"categories_segments":[],"categories_sizes":[],"default_left":[0,0,0,0,0,0,0,0,0,0,0,0,0,0,0],"id":38,"left_children":[1,3,5,7,9,11,13,-1,-1,-1,-1,-1,-1,-1,-1],"loss_changes":[2.448488E3,3.1904722E3,2.0714526E3,2.4117104E3,3.8749028E3,1.4842692E3,2.9717847E3,0E0,0E0,0E0,0E0,0E0,0E0,0E0,0E0],"parents":[2147483647,0,0,1,1,2,2,3,3,4,4,5,5,6,6],"right_children":[2,4,6,8,10,12,14,-1,-1,-1,-1,-1,-1,-1,-1],"split_conditions":[6.472723E-1,-6.694493E-1,6.819643E1,7.525048E1,9.29696E-1,6.286519E-1,9.94333E-1,1.357795E-2,9.514552E-2,-3.132562E-2,2.417011E-3,-9.209623E-2,1.8978896E-2,9.918199E-2,-1.13386564E-1],"split_indices":[1,1,2,2,0,0,0,0,0,0,0,0,0,0,0],"split_type":[0,0,0,0,0,0,0,0,0,0,0,0,0,0,0],"sum_hessian":[1.9158339E5,1.668521E5,2.4731297E4,2.2947229E4,1.4390486E5,1.7981752E4,6.749544E3,1.8436102E4,4.511127E3,5.522912E4,8.867574E4,1.295518E3,1.6686234E4,6.011924E3,7.3761993E2],"tree_param":{"num_deleted":"0","num_feature":"3","num_nodes":"15","size_leaf_vector":"1"}},{"base_weights":[-6.184072E-3,-3.7844166E-2,4.546991E-1,-3.8055462E-1,2.996455E-2,3.3975738E-1,2.3820279E0,-9.686886E-2,-1.9802338E-2,2.9404002E-4,1.0985165E-1,4.810031E-3,1.2589344E-1,-2.3900988E-3,2.8676784E-1],"categories":[],"categories_nodes":[],"categories_segments":[],"categories_sizes":[],"default_left":[0,0,0,0,0,0,0,0,0,0,0,0,0,0,0],"id":39,"left_children":[1,3,5,7,9,11,13,-1,-1,-1,-1,-1,-1,-1,-1],"loss_changes":[2.7979255E3,4.1695884E3,2.7296423E3,3.1814092E3,4.325368E3,3.1185327E3,8.104094E2,0E0,0E0,0E0,0E0,0E0,0E0,0E0,0E0],"parents":[2147483647,0,0,1,1,2,2,3,3,4,4,5,5,6,6],"right_children":[2,4,6,8,10,12,14,-1,-1,-1,-1,-1,-1,-1,-1],"split_conditions":[2.3687405E2,4.4600028E-1,3.8663518E-1,7.9003044E1,1.150234E2,2.887332E-1,5.480779E-2,-9.686886E-2,-1.9802338E-2,2.9404002E-4,1.0985165E-1,4.810031E-3,1.2589344E-1,-2.3900988E-3,2.8676784E-1],"split_indices":[2,0,1,2,2,0,0,0,0,0,0,0,0,0,0],"split_type":[0,0,0,0,0,0,0,0,0,0,0,0,0,0,0],"sum_hessian":[1.9174683E5,1.7942242E5,1.2324399E4,2.963587E4,1.4978656E5,1.1631875E4,6.925236E2,7.018205E3,2.2617664E4,1.4609281E5,3.693749E3,8.830871E3,2.8010042E3,1.1647135E2,5.7605225E2],"tree_param":{"num_deleted":"0","num_feature":"3","num_nodes":"15","size_leaf_vector":"1"}},{"base_weights":[-5.698412E-3,-2.3252057E-2,7.5049007E-1,-3.9765665E-1,1.7716907E-2,-6.600761E-1,1.1345671E0,-9.457122E-2,-2.2828428E-2,-6.1769253E-3,2.610962E-2,-6.93908E-2,5.6310087E-2,2.9495916E-1,1.045646E-1],"categories":[],"categories_nodes":[],"categories_segments":[],"categories_sizes":[],"default_left":[0,0,0,0,0,0,0,0,0,0,0,0,0,0,0],"id":40,"left_children":[1,3,5,7,9,11,13,-1,-1,-1,-1,-1,-1,-1,-1],"loss_changes":[2.5295735E3,2.8568022E3,2.3429966E3,1.7049524E3,3.2476191E3,3.8706207E1,5.454087E2,0E0,0E0,0E0,0E0,0E0,0E0,0E0,0E0],"parents":[2147483647,0,0,1,1,2,2,3,3,4,4,5,5,6,6],"right_children":[2,4,6,8,10,12,14,-1,-1,-1,-1,-1,-1,-1,-1],"split_conditions":[7.253127E2,2.6115295E-1,4.784895E-2,9.038676E1,6.819643E1,2.9619178E-1,-2.5578567E-1,-9.457122E-2,-2.2828428E-2,-6.1769253E-3,2.610962E-2,-6.93908E-2,5.6310087E-2,2.9495916E-1,1.045646E-1],"split_indices":[2,0,0,2,2,1,1,0,0,0,0,0,0,0,0],"split_type":[0,0,0,0,0,0,0,0,0,0,0,0,0,0,0],"sum_hessian":[1.9056566E5,1.862433E5,4.3223564E3,1.836862E4,1.6787469E5,9.2488684E2,3.3974695E3,4.3354326E3,1.4033187E4,1.2654623E5,4.1328457E4,9.004149E2,2.4471941E1,1.571716E2,3.2402979E3],"tree_param":{"num_deleted":"0","num_feature":"3","num_nodes":"15","size_leaf_vector":"1"}},{"base_weights":[-5.3231986E-3,-3.708834E-2,3.6282188E-1,2.369989E-1,-9.38414E-2,8.303685E-1,4.870584E-2,8.464467E-3,6.823306E-2,-3.0173901E-2,2.2842837E-3,-7.873397E-2,1.8061747E-1,9.2017345E-2,-7.2096445E-2],"categories":[],"categories_nodes":[],"categories_segments":[],"categories_sizes":[],"default_left":[0,0,0,0,0,0,0,0,0,0,0,0,0,0,0],"id":41,"left_children":[1,3,5,7,9,11,13,-1,-1,-1,-1,-1,-1,-1,-1],"loss_changes":[2.2172744E3,2.7151104E3,2.2117964E3,2.031452E3,3.5078496E3,9.555044E3,6.043638E3,0E0,0E0,0E0,0E0,0E0,0E0,0E0,0E0],"parents":[2147483647,0,0,1,1,2,2,3,3,4,4,5,5,6,6],"right_children":[2,4,6,8,10,12,14,-1,-1,-1,-1,-1,-1,-1,-1],"split_conditions":[7.403862E-1,-6.0544086E-1,1.1141019E0,7.061105E1,8.726272E-1,5.7034245E1,5.6286354E1,8.464467E-3,6.823306E-2,-3.0173901E-2,2.2842837E-3,-7.873397E-2,1.8061747E-1,9.2017345E-2,-7.2096445E-2],"split_indices":[1,1,0,2,0,2,2,0,0,0,0,0,0,0,0],"split_type":[0,0,0,0,0,0,0,0,0,0,0,0,0,0,0],"sum_hessian":[1.8960281E5,1.7454336E5,1.5059452E4,2.9941002E4,1.4460236E5,6.0510747E3,9.008378E3,2.2309723E4,7.6312803E3,5.198267E4,9.261969E4,2.2767812E3,3.7742937E3,4.224709E3,4.7836685E3],"tree_param":{"num_deleted":"0","num_feature":"3","num_nodes":"15","size_leaf_vector":"1"}},{"base_weights":[-5.229905E-3,-3.059339E-2,4.9492523E-1,-3.3584875E-1,2.6528055E-2,2.0125303E-1,1.3293939E0,-9.7197734E-2,-1.7946554E-2,5.601889E-5,1.1403652E-1,6.1820787E-3,2.4253595E-1,1.863129E-1,1.2837578E-1],"categories":[],"categories_nodes":[],"categories_segments":[],"categories_sizes":[],"default_left":[0,0,0,0,0,0,0,0,0,0,0,0,0,0,0],"id":42,"left_children":[1,3,5,7,9,11,13,-1,-1,-1,-1,-1,-1,-1,-1],"loss_changes":[2.4064832E3,3.1481035E3,2.2434229E3,2.8309583E3,4.3989478E3,2.1003904E3,5.565674E1,0E0,0E0,0E0,0E0,0E0,0E0,0E0,0E0],"parents":[2147483647,0,0,1,1,2,2,3,3,4,4,5,5,6,6],"right_children":[2,4,6,8,10,12,14,-1,-1,-1,-1,-1,-1,-1,-1],"split_conditions":[3.157351E2,4.1532114E-1,2.5429755E-1,8.011478E1,1.2461424E2,3.4460163E-1,-3.1118944E-1,-9.7197734E-2,-1.7946554E-2,5.601889E-5,1.1403652E-1,6.1820787E-3,2.4253595E-1,1.863129E-1,1.2837578E-1],"split_indices":[2,0,0,2,2,1,1,0,0,0,0,0,0,0,0],"split_type":[0,0,0,0,0,0,0,0,0,0,0,0,0,0,0],"sum_hessian":[1.8969861E5,1.8054394E5,9.154667E3,2.8458367E4,1.5208558E5,6.7724863E3,2.382181E3,5.6145474E3,2.284382E4,1.4862162E5,3.463946E3,6.3739243E3,3.9856213E2,1.8450356E2,2.1976775E3],"tree_param":{"num_deleted":"0","num_feature":"3","num_nodes":"15","size_leaf_vector":"1"}},{"base_weights":[-4.791718E-3,-5.961953E-2,1.9835569E-1,1.3617447E-1,-1.7254421E-1,1.3027386E-1,1.3027662E0,9.417608E-3,1.5797691E-1,-4.4956323E-2,1.2374262E-3,-7.791594E-2,1.7062556E-2,-2.9098598E-2,1.6043407E-1],"categories":[],"categories_nodes":[],"categories_segments":[],"categories_sizes":[],"default_left":[0,0,0,0,0,0,0,0,0,0,0,0,0,0,0],"id":43,"left_children":[1,3,5,7,9,11,13,-1,-1,-1,-1,-1,-1,-1,-1],"loss_changes":[2.101382E3,3.2848633E3,3.0147622E3,3.294691E3,4.826749E3,1.3861918E3,1.119471E3,0E0,0E0,0E0,0E0,0E0,0E0,0E0,0E0],"parents":[2147483647,0,0,1,1,2,2,3,3,4,4,5,5,6,6],"right_children":[2,4,6,8,10,12,14,-1,-1,-1,-1,-1,-1,-1,-1],"split_conditions":[4.9865788E-1,-3.736835E-1,1.2461424E2,1.9285915E2,1.0365124E0,1.2572356E-1,6.706228E-2,9.417608E-3,1.5797691E-1,-4.4956323E-2,1.2374262E-3,-7.791594E-2,1.7062556E-2,-2.9098598E-2,1.6043407E-1],"split_indices":[1,1,2,2,0,0,0,0,0,0,0,0,0,0,0],"split_type":[0,0,0,0,0,0,0,0,0,0,0,0,0,0,0],"sum_hessian":[1.8866358E5,1.4856722E5,4.0096363E4,5.434359E4,9.4223625E4,3.7769188E4,2.327178E3,5.280831E4,1.5352828E3,3.7718145E4,5.6505484E4,1.6038488E3,3.6165336E4,3.7029404E2,1.956884E3],"tree_param":{"num_deleted":"0","num_feature":"3","num_nodes":"15","size_leaf_vector":"1"}},{"base_weights":[-4.5210603E-3,-2.1564936E-2,7.4152696E-1,-3.4924936E-1,1.53199835E-2,-6.0074264E-1,1.0670915E0,-9.240354E-2,-1.9643843E-2,-1.7871115E-4,1.06957786E-1,7.469349E-2,-6.36627E-2,9.7199045E-2,2.4211276E-1],"categories":[],"categories_nodes":[],"categories_segments":[],"categories_sizes":[],"default_left":[0,0,0,0,0,0,0,0,0,0,0,0,0,0,0],"id":44,"left_children":[1,3,5,7,9,11,13,-1,-1,-1,-1,-1,-1,-1,-1],"loss_changes":[2.4010754E3,2.2313398E3,1.8436995E3,1.6403713E3,2.9926887E3,4.032068E1,4.3477734E2,0E0,0E0,0E0,0E0,0E0,0E0,0E0,0E0],"parents":[2147483647,0,0,1,1,2,2,3,3,4,4,5,5,6,6],"right_children":[2,4,6,8,10,12,14,-1,-1,-1,-1,-1,-1,-1,-1],"split_conditions":[7.253127E2,2.7487624E-1,4.784895E-2,9.038676E1,2.3687405E2,-2.972719E-1,2.407377E-1,-9.240354E-2,-1.9643843E-2,-1.7871115E-4,1.06957786E-1,7.469349E-2,-6.36627E-2,9.7199045E-2,2.4211276E-1],"split_indices":[2,0,0,2,2,1,1,0,0,0,0,0,0,0,0],"split_type":[0,0,0,0,0,0,0,0,0,0,0,0,0,0,0],"sum_hessian":[1.888276E5,1.8461103E5,4.2165693E3,1.8676969E4,1.6593406E5,8.2291785E2,3.3936514E3,3.9215037E3,1.4755466E4,1.6328547E5,2.6485813E3,2.082947E1,8.020884E2,3.1725444E3,2.2110683E2],"tree_param":{"num_deleted":"0","num_feature":"3","num_nodes":"15","size_leaf_vector":"1"}},{"base_weights":[-4.166971E-3,-2.2555795E-2,5.633048E-1,-8.9788824E-2,1.6467124E-1,2.2498848E-1,1.3882638E0,1.394241E-2,-2.2709044E-2,1.12420535E-2,1.371267E-1,-2.498152E-2,7.8272395E-2,1.4905733E-1,1.2535144E-1],"categories":[],"categories_nodes":[],"categories_segments":[],"categories_sizes":[],"default_left":[0,0,0,0,0,0,0,0,0,0,0,0,0,0,0],"id":45,"left_children":[1,3,5,7,9,11,13,-1,-1,-1,-1,-1,-1,-1,-1],"loss_changes":[1.9637001E3,2.2944597E3,1.6481993E3,4.2208066E3,3.0361594E3,1.1097599E3,2.1810547E1,0E0,0E0,0E0,0E0,0E0,0E0,0E0,0E0],"parents":[2147483647,0,0,1,1,2,2,3,3,4,4,5,5,6,6],"right_children":[2,4,6,8,10,12,14,-1,-1,-1,-1,-1,-1,-1,-1],"split_conditions":[4.9919733E2,4.2150497E-1,2.1380094E-1,-4.1562122E-1,1.5395627E2,1.4149019E3,2.887332E-1,1.394241E-2,-2.2709044E-2,1.12420535E-2,1.371267E-1,-2.498152E-2,7.8272395E-2,1.4905733E-1,1.2535144E-1],"split_indices":[2,1,0,1,2,2,0,0,0,0,0,0,0,0,0],"split_type":[0,0,0,0,0,0,0,0,0,0,0,0,0,0,0],"sum_hessian":[1.881793E5,1.8227372E5,5.9055874E3,1.3411403E5,4.8159684E4,4.188963E3,1.7166243E3,5.0241035E4,8.387299E4,4.6161777E4,1.9979076E3,2.263005E3,1.9259581E3,9.7004724E2,7.465771E2],"tree_param":{"num_deleted":"0","num_feature":"3","num_nodes":"15","size_leaf_vector":"1"}},{"base_weights":[-3.8692958E-3,-4.1353907E-2,2.516376E-1,-2.5276053E-1,3.009258E-1,2.0509977E0,-8.747372E-1,-6.558471E-2,3.6736608E-3,4.384625E-2,-1.1038073E-1,2.4746911E-1,1.1250254E-1,-1.0315579E-1,-1.7765764E-2],"categories":[],"categories_nodes":[],"categories_segments":[],"categories_sizes":[],"default_left":[0,0,0,0,0,0,0,0,0,0,0,0,0,0,0],"id":46,"left_children":[1,3,5,7,9,11,13,-1,-1,-1,-1,-1,-1,-1,-1],"loss_changes":[1.7991859E3,1.1854146E4,4.8711938E4,1.1817643E4,1.2085246E4,3.6274102E3,1.6156924E3,0E0,0E0,0E0,0E0,0E0,0E0,0E0,0E0],"parents":[2147483647,0,0,1,1,2,2,3,3,4,4,5,5,6,6],"right_children":[2,4,6,8,10,12,14,-1,-1,-1,-1,-1,-1,-1,-1],"split_conditions":[4.2487946E0,6.296786E1,5.984397E1,1.3968955E0,1.6935651E0,5.590169E1,1.3570714E1,-6.558471E-2,3.6736608E-3,4.384625E-2,-1.1038073E-1,2.4746911E-1,1.1250254E-1,-1.0315579E-1,-1.7765764E-2],"split_indices":[0,2,2,0,0,2,0,0,0,0,0,0,0,0,0],"split_type":[0,0,0,0,0,0,0,0,0,0,0,0,0,0,0],"sum_hessian":[1.8785188E5,1.6381931E5,2.4032574E4,1.0127054E5,6.254877E4,9.251953E3,1.4780621E4,4.233014E4,5.89404E4,5.6971414E4,5.577355E3,6.3463887E3,2.9055647E3,1.2065735E4,2.7148855E3],"tree_param":{"num_deleted":"0","num_feature":"3","num_nodes":"15","size_leaf_vector":"1"}},{"base_weights":[-5.032726E-3,-5.749414E-1,1.3752512E-2,-7.1766573E-1,-2.2677428E-1,-6.2331476E-4,8.543006E-1,-8.987111E-2,-6.1451644E-2,-5.3802855E-2,4.9172174E-2,-4.014592E-3,3.2061778E-2,5.0357442E-2,1.3926171E-1],"categories":[],"categories_nodes":[],"categories_segments":[],"categories_sizes":[],"default_left":[0,0,0,0,0,0,0,0,0,0,0,0,0,0,0],"id":47,"left_children":[1,3,5,7,9,11,13,-1,-1,-1,-1,-1,-1,-1,-1],"loss_changes":[1.9893137E3,2.94479E2,2.1736677E3,7.7974365E1,3.8612372E2,2.245507E3,5.7039453E2,0E0,0E0,0E0,0E0,0E0,0E0,0E0,0E0],"parents":[2147483647,0,0,1,1,2,2,3,3,4,4,5,5,6,6],"right_children":[2,4,6,8,10,12,14,-1,-1,-1,-1,-1,-1,-1,-1],"split_conditions":[8.7753445E-2,3.841419E2,7.253127E2,1.11058395E2,5.480779E-2,6.900119E-1,1.9000956E-1,-8.987111E-2,-6.1451644E-2,-5.3802855E-2,4.9172174E-2,-4.014592E-3,3.2061778E-2,5.0357442E-2,1.3926171E-1],"split_indices":[0,2,2,2,0,1,0,0,0,0,0,0,0,0,0],"split_type":[0,0,0,0,0,0,0,0,0,0,0,0,0,0,0],"sum_hessian":[1.8581352E5,5.928369E3,1.7988514E5,4.2039717E3,1.7243973E3,1.768613E5,3.0238452E3,1.5230448E3,2.680927E3,1.2033529E3,5.210443E2,1.5748645E5,1.9374838E4,1.8321141E3,1.1917312E3],"tree_param":{"num_deleted":"0","num_feature":"3","num_nodes":"15","size_leaf_vector":"1"}},{"base_weights":[-4.618792E-3,3.6743698E-1,-3.447959E-2,8.950058E-1,2.215543E-2,-1.9443153E-1,4.4430993E-2,-8.197709E-2,2.192413E-1,1.0543045E-1,-7.273763E-2,-9.9537596E-2,-3.296353E-3,3.633227E-2,-6.543803E-4],"categories":[],"categories_nodes":[],"categories_segments":[],"categories_sizes":[],"default_left":[0,0,0,0,0,0,0,0,0,0,0,0,0,0,0],"id":48,"left_children":[1,3,5,7,9,11,13,-1,-1,-1,-1,-1,-1,-1,-1],"loss_changes":[2.060802E3,2.510391E3,2.1673303E3,1.2130316E4,6.445687E3,7.336251E3,1.8691428E3,0E0,0E0,0E0,0E0,0E0,0E0,0E0,0E0],"parents":[2147483647,0,0,1,1,2,2,3,3,4,4,5,5,6,6],"right_children":[2,4,6,8,10,12,14,-1,-1,-1,-1,-1,-1,-1,-1],"split_conditions":[-7.5515556E-1,1.1141019E0,8.017002E-1,5.7034245E1,5.5809517E1,6.2242363E1,5.0342648E1,-8.197709E-2,2.192413E-1,1.0543045E-1,-7.273763E-2,-9.9537596E-2,-3.296353E-3,3.633227E-2,-6.543803E-4],"split_indices":[1,0,0,2,2,2,2,0,0,0,0,0,0,0,0],"split_type":[0,0,0,0,0,0,0,0,0,0,0,0,0,0,0],"sum_hessian":[1.8549056E5,1.3780368E4,1.7171019E5,5.4505986E3,8.32977E3,5.6725664E4,1.1498452E5,2.347839E3,3.1027593E3,3.5040627E3,4.8257065E3,9.516238E3,4.7209426E4,1.5846261E4,9.9138266E4],"tree_param":{"num_deleted":"0","num_feature":"3","num_nodes":"15","size_leaf_vector":"1"}},{"base_weights":[-4.855629E-3,-5.379991E-1,1.3347181E-2,-7.2222537E-1,-2.0814206E-1,-2.0393465E-2,3.41304E-1,-9.384801E-2,-6.2734E-2,-3.910894E-2,7.573288E-2,-3.2413986E-2,4.109918E-3,1.3001381E-1,1.8162392E-2],"categories":[],"categories_nodes":[],"categories_segments":[],"categories_sizes":[],"default_left":[0,0,0,0,0,0,0,0,0,0,0,0,0,0,0],"id":49,"left_children":[1,3,5,7,9,11,13,-1,-1,-1,-1,-1,-1,-1,-1],"loss_changes":[1.7960109E3,3.7114355E2,1.9802421E3,7.984778E1,3.872885E2,3.030796E3,2.5557021E3,0E0,0E0,0E0,0E0,0E0,0E0,0E0,0E0],"parents":[2147483647,0,0,1,1,2,2,3,3,4,4,5,5,6,6],"right_children":[2,4,6,8,10,12,14,-1,-1,-1,-1,-1,-1,-1,-1],"split_conditions":[9.242053E-2,2.6985034E2,1.4499028E2,1.0144721E2,7.259543E-2,6.0283405E-1,-3.8770974E-1,-9.384801E-2,-6.2734E-2,-3.910894E-2,7.573288E-2,-3.2413986E-2,4.109918E-3,1.3001381E-1,1.8162392E-2],"split_indices":[0,2,2,2,0,0,1,0,0,0,0,0,0,0,0],"split_type":[0,0,0,0,0,0,0,0,0,0,0,0,0,0,0],"sum_hessian":[1.8506417E5,6.108989E3,1.7895519E5,3.9190154E3,2.1899731E3,1.6226236E5,1.6692834E4,1.1924329E3,2.7265825E3,1.8416024E3,3.4837082E2,2.7318213E4,1.3494414E5,2.3820645E3,1.4310769E4],"tree_param":{"num_deleted":"0","num_feature":"3","num_nodes":"15","size_leaf_vector":"1"}},{"base_weights":[-4.512177E-3,2.4782576E-1,-4.04686E-2,5.8563673E-1,4.485511E-3,-1.2442354E-1,1.4714564E-1,-8.688157E-2,1.4160244E-1,8.199247E-2,-6.864421E-2,-3.913541E-2,1.559635E-3,7.813466E-3,8.587824E-2],"categories":[],"categories_nodes":[],"categories_segments":[],"categories_sizes":[],"default_left":[0,0,0,0,0,0,0,0,0,0,0,0,0,0,0],"id":50,"left_children":[1,3,5,7,9,11,13,-1,-1,-1,-1,-1,-1,-1,-1],"loss_changes":[1.6755731E3,1.8933541E3,2.5460427E3,1.1649182E4,7.544293E3,4.1737515E3,2.4540586E3,0E0,0E0,0E0,0E0,0E0,0E0,0E0,0E0],"parents":[2147483647,0,0,1,1,2,2,3,3,4,4,5,5,6,6],"right_children":[2,4,6,8,10,12,14,-1,-1,-1,-1,-1,-1,-1,-1],"split_conditions":[-6.694493E-1,1.130957E0,4.005783E-1,5.6810955E1,5.5995567E1,8.6191374E-1,1.1954893E2,-8.688157E-2,1.4160244E-1,8.199247E-2,-6.864421E-2,-3.913541E-2,1.559635E-3,7.813466E-3,8.587824E-2],"split_indices":[1,0,1,2,2,0,2,0,0,0,0,0,0,0,0],"split_type":[0,0,0,0,0,0,0,0,0,0,0,0,0,0,0],"sum_hessian":[1.846713E5,2.3031693E4,1.616396E5,9.643266E3,1.3388428E4,1.1166935E5,4.997025E4,3.50467E3,6.138596E3,6.140805E3,7.2476226E3,3.842158E4,7.324777E4,4.555378E4,4.416469E3],"tree_param":{"num_deleted":"0","num_feature":"3","num_nodes":"15","size_leaf_vector":"1"}},{"base_weights":[-4.5439573E-3,-5.0258595E-1,1.2959265E-2,-7.202658E-1,-1.4372931E-1,4.017948E-3,1.193028E0,-9.46061E-2,-6.259883E-2,-3.1713434E-2,7.848154E-2,-3.868397E-3,2.3622803E-2,5.637538E-2,1.6861786E-1],"categories":[],"categories_nodes":[],"categories_segments":[],"categories_sizes":[],"default_left":[0,0,0,0,0,0,0,0,0,0,0,0,0,0,0],"id":51,"left_children":[1,3,5,7,9,11,13,-1,-1,-1,-1,-1,-1,-1,-1],"loss_changes":[1.6092814E3,4.8949304E2,1.8817223E3,8.2448E1,3.814765E2,1.7551036E3,4.1523047E2,0E0,0E0,0E0,0E0,0E0,0E0,0E0,0E0],"parents":[2147483647,0,0,1,1,2,2,3,3,4,4,5,5,6,6],"right_children":[2,4,6,8,10,12,14,-1,-1,-1,-1,-1,-1,-1,-1],"split_conditions":[9.6913405E-2,2.3687405E2,1.4149019E3,9.88498E1,7.7824526E-2,6.117271E-1,1.4449681E-1,-9.46061E-2,-6.259883E-2,-3.1713434E-2,7.848154E-2,-3.868397E-3,2.3622803E-2,5.637538E-2,1.6861786E-1],"split_indices":[0,2,2,2,0,1,0,0,0,0,0,0,0,0,0],"split_type":[0,0,0,0,0,0,0,0,0,0,0,0,0,0,0],"sum_hessian":[1.8460519E5,6.266571E3,1.7833861E5,3.8999077E3,2.366663E3,1.769985E5,1.3401047E3,1.1460573E3,2.7538506E3,1.994795E3,3.7186798E2,1.4950614E5,2.749237E4,5.897325E2,7.503723E2],"tree_param":{"num_deleted":"0","num_feature":"3","num_nodes":"15","size_leaf_vector":"1"}},{"base_weights":[-4.1731913E-3,3.5543856E-1,-2.6892975E-2,8.566352E-1,2.4067739E-2,-6.2436648E-2,2.3065595E-1,-8.129587E-2,1.745323E-1,7.448631E-2,-7.42697E-2,-2.4671245E-2,2.256014E-2,1.6569827E-1,-8.640378E-2],"categories":[],"categories_nodes":[],"categories_segments":[],"categories_sizes":[],"default_left":[0,0,0,0,0,0,0,0,0,0,0,0,0,0,0],"id":52,"left_children":[1,3,5,7,9,11,13,-1,-1,-1,-1,-1,-1,-1,-1],"loss_changes":[1.506411E3,1.819647E3,1.5875402E3,6.4716743E3,3.646414E3,8.088668E3,3.2839094E4,0E0,0E0,0E0,0E0,0E0,0E0,0E0,0E0],"parents":[2147483647,0,0,1,1,2,2,3,3,4,4,5,5,6,6],"right_children":[2,4,6,8,10,12,14,-1,-1,-1,-1,-1,-1,-1,-1],"split_conditions":[-7.8394544E-1,1.1141019E0,4.476723E0,5.6286354E1,5.659401E1,6.296786E1,6.0196117E1,-8.129587E-2,1.745323E-1,7.448631E-2,-7.42697E-2,-2.4671245E-2,2.256014E-2,1.6569827E-1,-8.640378E-2],"split_indices":[1,0,0,2,2,2,2,0,0,0,0,0,0,0,0],"split_type":[0,0,0,0,0,0,0,0,0,0,0,0,0,0,0],"sum_hessian":[1.8437427E5,1.0955441E4,1.7341883E5,4.3597524E3,6.595689E3,1.523888E5,2.1030031E4,1.5145066E3,2.845246E3,3.399771E3,3.1959182E3,9.293357E4,5.9455223E4,9.131572E3,1.1898458E4],"tree_param":{"num_deleted":"0","num_feature":"3","num_nodes":"15","size_leaf_vector":"1"}},{"base_weights":[-4.694595E-3,-1.7795277E-1,4.4382904E-2,-9.488851E-1,-6.30833E-2,1.9665806E-2,9.78989E-1,-9.784452E-2,-4.181279E-2,-1.1432681E-2,1.2707102E-1,-2.6271526E-2,5.267811E-3,1.19648695E-1,-1.4495346E-1],"categories":[],"categories_nodes":[],"categories_segments":[],"categories_sizes":[],"default_left":[0,0,0,0,0,0,0,0,0,0,0,0,0,0,0],"id":53,"left_children":[1,3,5,7,9,11,13,-1,-1,-1,-1,-1,-1,-1,-1],"loss_changes":[1.5565944E3,3.5783774E3,3.2953965E3,8.180322E1,2.403916E3,1.2955884E3,1.9431199E3,0E0,0E0,0E0,0E0,0E0,0E0,0E0,0E0],"parents":[2147483647,0,0,1,1,2,2,3,3,4,4,5,5,6,6],"right_children":[2,4,6,8,10,12,14,-1,-1,-1,-1,-1,-1,-1,-1],"split_conditions":[4.7365022E-1,7.796757E1,1.11058395E2,8.417077E-1,7.9094607E-1,7.7398497E-1,9.177951E-1,-9.784452E-2,-4.181279E-2,-1.1432681E-2,1.2707102E-1,-2.6271526E-2,5.267811E-3,1.19648695E-1,-1.4495346E-1],"split_indices":[0,2,2,1,1,0,0,0,0,0,0,0,0,0,0],"split_type":[0,0,0,0,0,0,0,0,0,0,0,0,0,0,0],"sum_hessian":[1.8306055E5,4.0407484E4,1.4265306E5,5.239041E3,3.516844E4,1.3897858E5,3.6744814E3,4.9618516E3,2.771896E2,3.3868164E4,1.3002793E3,1.4546194E4,1.2443239E5,3.3729116E3,3.0156976E2],"tree_param":{"num_deleted":"0","num_feature":"3","num_nodes":"15","size_leaf_vector":"1"}},{"base_weights":[-4.3407637E-3,-5.2609736E-1,1.1532167E-2,-6.823679E-1,-1.4689274E-1,-8.633492E-3,5.0668687E-1,-8.5991144E-2,-5.353665E-2,-4.533477E-2,4.647655E-2,-2.6958903E-2,3.8227066E-3,2.0263426E-1,3.512374E-2],"categories":[],"categories_nodes":[],"categories_segments":[],"categories_sizes":[],"default_left":[0,0,0,0,0,0,0,0,0,0,0,0,0,0,0],"id":54,"left_children":[1,3,5,7,9,11,13,-1,-1,-1,-1,-1,-1,-1,-1],"loss_changes":[1.5114984E3,3.1920593E2,1.7685712E3,9.91228E1,2.9521054E2,2.0811833E3,1.6366278E3,0E0,0E0,0E0,0E0,0E0,0E0,0E0,0E0],"parents":[2147483647,0,0,1,1,2,2,3,3,4,4,5,5,6,6],"right_children":[2,4,6,8,10,12,14,-1,-1,-1,-1,-1,-1,-1,-1],"split_conditions":[8.7753445E-2,3.841419E2,3.157351E2,1.1954893E2,5.480779E-2,4.5051327E-1,-3.042524E-1,-8.5991144E-2,-5.353665E-2,-4.533477E-2,4.647655E-2,-2.6958903E-2,3.8227066E-3,2.0263426E-1,3.512374E-2],"split_indices":[0,2,2,2,0,0,1,0,0,0,0,0,0,0,0],"split_type":[0,0,0,0,0,0,0,0,0,0,0,0,0,0,0],"sum_hessian":[1.8250656E5,5.38736E3,1.771192E5,3.8145718E3,1.5727881E3,1.7018906E5,6.930133E3,1.7255994E3,2.0889727E3,1.047983E3,5.2480505E2,2.5908104E4,1.4428095E5,6.419984E2,6.288135E3],"tree_param":{"num_deleted":"0","num_feature":"3","num_nodes":"15","size_leaf_vector":"1"}},{"base_weights":[-4.009288E-3,1.8047455E-1,-4.732558E-2,1.311011E-1,1.2084863E0,-1.4666599E-1,1.1779504E-1,-7.419486E-2,1.6835734E-2,-5.120751E-2,1.6558562E-1,-4.41723E-2,1.7605312E-3,7.0635006E-3,1.0292381E-1],"categories":[],"categories_nodes":[],"categories_segments":[],"categories_sizes":[],"default_left":[0,0,0,0,0,0,0,0,0,0,0,0,0,0,0],"id":55,"left_children":[1,3,5,7,9,11,13,-1,-1,-1,-1,-1,-1,-1,-1],"loss_changes":[1.456381E3,1.7587946E3,2.4210283E3,1.0757043E3,1.2231787E3,4.4666255E3,2.3830244E3,0E0,0E0,0E0,0E0,0E0,0E0,0E0,0E0],"parents":[2147483647,0,0,1,1,2,2,3,3,4,4,5,5,6,6],"right_children":[2,4,6,8,10,12,14,-1,-1,-1,-1,-1,-1,-1,-1],"split_conditions":[-5.559022E-1,1.2461424E2,3.4460163E-1,1.2572356E-1,6.117202E-2,9.419561E-1,1.6467946E2,-7.419486E-2,1.6835734E-2,-5.120751E-2,1.6558562E-1,-4.41723E-2,1.7605312E-3,7.0635006E-3,1.0292381E-1],"split_indices":[1,2,1,0,0,0,2,0,0,0,0,0,0,0,0],"split_type":[0,0,0,0,0,0,0,0,0,0,0,0,0,0,0],"sum_hessian":[1.8224702E5,3.4653746E4,1.4759327E5,3.3066742E4,1.587005E3,9.215237E4,5.54409E4,1.3525536E3,3.1714188E4,3.274612E2,1.2595438E3,3.2956195E4,5.919617E4,5.2714418E4,2.7264805E3],"tree_param":{"num_deleted":"0","num_feature":"3","num_nodes":"15","size_leaf_vector":"1"}},{"base_weights":[-3.761873E-3,-2.6396705E-2,3.0412993E-1,1.3989072E-1,-8.3717905E-2,8.741819E-1,-4.4695526E-2,8.897755E-3,9.708004E-2,-2.951767E-2,1.624735E-3,-7.955824E-2,1.6658819E-1,6.9489025E-2,-6.859875E-2],"categories":[],"categories_nodes":[],"categories_segments":[],"categories_sizes":[],"default_left":[0,0,0,0,0,0,0,0,0,0,0,0,0,0,0],"id":56,"left_children":[1,3,5,7,9,11,13,-1,-1,-1,-1,-1,-1,-1,-1],"loss_changes":[1.2710914E3,1.6194609E3,2.4837148E3,1.8424117E3,2.6707993E3,6.269527E3,3.6760635E3,0E0,0E0,0E0,0E0,0E0,0E0,0E0,0E0],"parents":[2147483647,0,0,1,1,2,2,3,3,4,4,5,5,6,6],"right_children":[2,4,6,8,10,12,14,-1,-1,-1,-1,-1,-1,-1,-1],"split_conditions":[7.693716E-1,-4.7178861E-1,1.1141019E0,1.3049452E2,8.210798E-1,5.6090748E1,5.571887E1,8.897755E-3,9.708004E-2,-2.951767E-2,1.624735E-3,-7.955824E-2,1.6658819E-1,6.9489025E-2,-6.859875E-2],"split_indices":[1,1,0,2,0,2,2,0,0,0,0,0,0,0,0],"split_type":[0,0,0,0,0,0,0,0,0,0,0,0,0,0,0],"sum_hessian":[1.8238798E5,1.698987E5,1.248928E4,4.3552504E4,1.263462E5,4.740625E3,7.748655E3,4.103899E4,2.5135164E3,4.055575E4,8.579045E4,1.5247627E3,3.2158625E3,3.5985056E3,4.150149E3],"tree_param":{"num_deleted":"0","num_feature":"3","num_nodes":"15","size_leaf_vector":"1"}},{"base_weights":[-3.6754475E-3,-2.18093E-2,4.3864772E-1,-3.4252313E-1,2.5253462E-2,1.5056044E-1,1.2853204E0,-9.070179E-2,-2.141915E-2,5.5464037E-4,1.0849892E-1,1.809384E-1,-2.0114246E-3,1.6736193E-1,1.24615386E-1],"categories":[],"categories_nodes":[],"categories_segments":[],"categories_sizes":[],"default_left":[0,0,0,0,0,0,0,0,0,0,0,0,0,0,0],"id":57,"left_children":[1,3,5,7,9,11,13,-1,-1,-1,-1,-1,-1,-1,-1],"loss_changes":[1.4634047E3,2.6453389E3,1.7523759E3,1.6245051E3,3.1918289E3,1.5181638E3,2.5654297E1,0E0,0E0,0E0,0E0,0E0,0E0,0E0,0E0],"parents":[2147483647,0,0,1,1,2,2,3,3,4,4,5,5,6,6],"right_children":[2,4,6,8,10,12,14,-1,-1,-1,-1,-1,-1,-1,-1],"split_conditions":[3.841419E2,3.5470906E-1,2.3738597E-1,8.6974556E1,1.5395627E2,-2.8343213E-1,-2.7646372E-1,-9.070179E-2,-2.141915E-2,5.5464037E-4,1.0849892E-1,1.809384E-1,-2.0114246E-3,1.6736193E-1,1.24615386E-1],"split_indices":[2,0,0,2,2,1,1,0,0,0,0,0,0,0,0],"split_type":[0,0,0,0,0,0,0,0,0,0,0,0,0,0,0],"sum_hessian":[1.8244394E5,1.7525978E5,7.184147E3,2.2426424E4,1.5283336E5,5.36115E3,1.8229971E3,4.1529033E3,1.8273521E4,1.5004411E5,2.789245E3,4.9924832E2,4.861902E3,1.6320853E2,1.6597886E3],"tree_param":{"num_deleted":"0","num_feature":"3","num_nodes":"15","size_leaf_vector":"1"}},{"base_weights":[-3.3474786E-3,-1.5834376E-2,5.5552846E-1,-3.239636E-1,2.1115294E-2,2.660565E-1,1.3041257E0,-8.8795505E-2,-2.022758E-2,6.719734E-4,1.1749978E-1,1.425312E-2,1.7732851E-1,8.2447305E-2,1.3203989E-1],"categories":[],"categories_nodes":[],"categories_segments":[],"categories_sizes":[],"default_left":[0,0,0,0,0,0,0,0,0,0,0,0,0,0,0],"id":58,"left_children":[1,3,5,7,9,11,13,-1,-1,-1,-1,-1,-1,-1,-1],"loss_changes":[1.2680369E3,2.02353E3,8.6016943E2,1.3059246E3,2.636153E3,5.331459E2,7.5527344E0,0E0,0E0,0E0,0E0,0E0,0E0,0E0,0E0],"parents":[2147483647,0,0,1,1,2,2,3,3,4,4,5,5,6,6],"right_children":[2,4,6,8,10,12,14,-1,-1,-1,-1,-1,-1,-1,-1],"split_conditions":[7.253127E2,2.9230314E-1,1.8660706E-1,9.038676E1,2.3687405E2,2.4774285E-1,1.9000956E-1,-8.8795505E-2,-2.022758E-2,6.719734E-4,1.1749978E-1,1.425312E-2,1.7732851E-1,8.2447305E-2,1.3203989E-1],"split_indices":[2,0,0,2,2,1,0,0,0,0,0,0,0,0,0],"split_type":[0,0,0,0,0,0,0,0,0,0,0,0,0,0,0],"sum_hessian":[1.8170067E5,1.7773062E5,3.9700417E3,1.9029852E4,1.5870078E5,2.8639485E3,1.1060933E3,3.3761199E3,1.5653732E4,1.5674625E5,1.9545226E3,2.6480237E3,2.159249E2,3.7990475E1,1.0681028E3],"tree_param":{"num_deleted":"0","num_feature":"3","num_nodes":"15","size_leaf_vector":"1"}},{"base_weights":[-3.0364457E-3,2.8459668E-1,-2.7049677E-2,7.486398E-1,-2.1146666E-2,-9.100881E-2,1.2297109E-1,-7.2332464E-2,1.527993E-1,5.6433808E-2,-7.359963E-2,-3.2462083E-2,1.1320928E-3,5.5406927E-3,7.580323E-2],"categories":[],"categories_nodes":[],"categories_segments":[],"categories_sizes":[],"default_left":[0,0,0,0,0,0,0,0,0,0,0,0,0,0,0],"id":59,"left_children":[1,3,5,7,9,11,13,-1,-1,-1,-1,-1,-1,-1,-1],"loss_changes":[1.2512136E3,1.980384E3,1.6042627E3,6.3610156E3,3.5224941E3,2.8021838E3,2.144249E3,0E0,0E0,0E0,0E0,0E0,0E0,0E0,0E0],"parents":[2147483647,0,0,1,1,2,2,3,3,4,4,5,5,6,6],"right_children":[2,4,6,8,10,12,14,-1,-1,-1,-1,-1,-1,-1,-1],"split_conditions":[-7.5515556E-1,1.1141019E0,4.005783E-1,5.750611E1,5.6810955E1,7.7398497E-1,1.150234E2,-7.2332464E-2,1.527993E-1,5.6433808E-2,-7.359963E-2,-3.2462083E-2,1.1320928E-3,5.5406927E-3,7.580323E-2],"split_indices":[1,0,1,2,2,0,2,0,0,0,0,0,0,0,0],"split_type":[0,0,0,0,0,0,0,0,0,0,0,0,0,0,0],"sum_hessian":[1.8114939E5,1.3957236E4,1.6719216E5,5.5429517E3,8.414285E3,1.17218266E5,4.9973883E4,1.9188643E3,3.6240872E3,4.625809E3,3.7884756E3,3.570468E4,8.1513586E4,4.51694E4,4.8044854E3],"tree_param":{"num_deleted":"0","num_feature":"3","num_nodes":"15","size_leaf_vector":"1"}},{"base_weights":[-3.0175115E-3,-2.5441596E-2,3.0303973E-1,-3.1788692E-1,2.701581E-2,1.337786E0,1.4273511E-1,-5.1051307E-2,2.5252704E-2,-4.2292043E-3,3.0084668E-2,-2.2801196E-2,1.5844257E-1,-7.907544E-3,1.0767052E-1],"categories":[],"categories_nodes":[],"categories_segments":[],"categories_sizes":[],"default_left":[0,0,0,0,0,0,0,0,0,0,0,0,0,0,0],"id":60,"left_children":[1,3,5,7,9,11,13,-1,-1,-1,-1,-1,-1,-1,-1],"loss_changes":[1.2429486E3,2.5886921E3,2.0505923E3,2.8200974E3,2.7154712E3,6.407849E2,2.2180154E3,0E0,0E0,0E0,0E0,0E0,0E0,0E0,0E0],"parents":[2147483647,0,0,1,1,2,2,3,3,4,4,5,5,6,6],"right_children":[2,4,6,8,10,12,14,-1,-1,-1,-1,-1,-1,-1,-1],"split_conditions":[2.1222067E2,4.7365022E-1,-3.3196545E-1,5.762239E-1,6.523223E1,5.480779E-2,2.9619178E-1,-5.1051307E-2,2.5252704E-2,-4.2292043E-3,3.0084668E-2,-2.2801196E-2,1.5844257E-1,-7.907544E-3,1.0767052E-1],"split_indices":[2,0,1,1,2,0,1,0,0,0,0,0,0,0,0],"split_type":[0,0,0,0,0,0,0,0,0,0,0,0,0,0,0],"sum_hessian":[1.8110512E5,1.6874266E5,1.2362456E4,2.5663863E4,1.430788E5,1.6573198E3,1.0705137E4,1.9185213E4,6.478652E3,1.14180125E5,2.889867E4,2.255413E2,1.4317784E3,8.65141E3,2.0537266E3],"tree_param":{"num_deleted":"0","num_feature":"3","num_nodes":"15","size_leaf_vector":"1"}},{"base_weights":[-2.8735432E-3,-1.1796293E-2,7.5288767E-1,-3.1953657E-1,1.7954951E-2,-5.570858E-1,1.0854479E0,-8.621218E-2,-1.8892724E-2,4.7172475E-4,1.0639124E-1,-9.432197E-3,-6.3461E-2,7.135427E-2,1.6067791E-1],"categories":[],"categories_nodes":[],"categories_segments":[],"categories_sizes":[],"default_left":[0,0,0,0,0,0,0,0,0,0,0,0,0,0,0],"id":61,"left_children":[1,3,5,7,9,11,13,-1,-1,-1,-1,-1,-1,-1,-1],"loss_changes":[1.2174706E3,1.6336841E3,9.183557E2,1.1145499E3,2.2528213E3,1.5265717E1,3.246704E2,0E0,0E0,0E0,0E0,0E0,0E0,0E0,0E0],"parents":[2147483647,0,0,1,1,2,2,3,3,4,4,5,5,6,6],"right_children":[2,4,6,8,10,12,14,-1,-1,-1,-1,-1,-1,-1,-1],"split_conditions":[1.4149019E3,2.4423394E-1,4.0189072E-2,9.428401E1,3.157351E2,-1.5889196E-1,1.4449681E-1,-8.621218E-2,-1.8892724E-2,4.7172475E-4,1.0639124E-1,-9.432197E-3,-6.3461E-2,7.135427E-2,1.6067791E-1],"split_indices":[2,0,0,2,2,1,0,0,0,0,0,0,0,0,0],"split_type":[0,0,0,0,0,0,0,0,0,0,0,0,0,0,0],"sum_hessian":[1.805384E5,1.7843277E5,2.105648E3,1.5728711E4,1.6270405E5,4.2618933E2,1.6794586E3,3.0505078E3,1.2678203E4,1.606716E5,2.0324652E3,6.1470566E1,3.6471875E2,9.8158673E2,6.978718E2],"tree_param":{"num_deleted":"0","num_feature":"3","num_nodes":"15","size_leaf_vector":"1"}},{"base_weights":[-2.6185766E-3,1.8195547E-1,-3.9832342E-2,4.791948E-1,-2.6167134E-2,-1.22806236E-1,9.597754E-2,-8.6217396E-2,1.09252356E-1,4.904983E-2,-6.8357356E-2,-3.8176477E-2,1.0781672E-3,4.622502E-3,7.1765296E-2],"categories":[],"categories_nodes":[],"categories_segments":[],"categories_sizes":[],"default_left":[0,0,0,0,0,0,0,0,0,0,0,0,0,0,0],"id":62,"left_children":[1,3,5,7,9,11,13,-1,-1,-1,-1,-1,-1,-1,-1],"loss_changes":[1.236903E3,1.8692003E3,1.6887684E3,1.0238289E4,6.0370073E3,3.2181804E3,1.7579053E3,0E0,0E0,0E0,0E0,0E0,0E0,0E0,0E0],"parents":[2147483647,0,0,1,1,2,2,3,3,4,4,5,5,6,6],"right_children":[2,4,6,8,10,12,14,-1,-1,-1,-1,-1,-1,-1,-1],"split_conditions":[-5.983669E-1,1.130957E0,3.308019E-1,5.71508E1,5.7034245E1,9.419561E-1,1.3717906E2,-8.6217396E-2,1.09252356E-1,4.904983E-2,-6.8357356E-2,-3.8176477E-2,1.0781672E-3,4.622502E-3,7.1765296E-2],"split_indices":[1,0,1,2,2,0,2,0,0,0,0,0,0,0,0],"split_type":[0,0,0,0,0,0,0,0,0,0,0,0,0,0,0],"sum_hessian":[1.8007625E5,3.021433E4,1.4986192E5,1.2442596E4,1.7771734E4,9.302674E4,5.6835176E4,3.9040073E3,8.538588E3,9.951196E3,7.8205386E3,3.16574E4,6.1369344E4,5.2624707E4,4.2104673E3],"tree_param":{"num_deleted":"0","num_feature":"3","num_nodes":"15","size_leaf_vector":"1"}},{"base_weights":[-2.744273E-3,-1.6987706E-2,4.6273464E-1,-2.833779E-1,2.3381425E-2,2.0708084E-1,1.2585996E0,-9.328396E-2,-1.8449094E-2,4.5670924E-4,1.1065071E-1,1.5288658E-1,4.836939E-3,1.5200023E-1,1.2306986E-1],"categories":[],"categories_nodes":[],"categories_segments":[],"categories_sizes":[],"default_left":[0,0,0,0,0,0,0,0,0,0,0,0,0,0,0],"id":63,"left_children":[1,3,5,7,9,11,13,-1,-1,-1,-1,-1,-1,-1,-1],"loss_changes":[1.1925155E3,1.8768436E3,1.0863293E3,1.4748705E3,3.0885103E3,8.481179E2,7.5979004E0,0E0,0E0,0E0,0E0,0E0,0E0,0E0,0E0],"parents":[2147483647,0,0,1,1,2,2,3,3,4,4,5,5,6,6],"right_children":[2,4,6,8,10,12,14,-1,-1,-1,-1,-1,-1,-1,-1],"split_conditions":[4.9919733E2,3.6239523E-1,2.1713768E-1,8.39544E1,1.5395627E2,-2.488245E-1,-2.488245E-1,-9.328396E-2,-1.8449094E-2,4.5670924E-4,1.1065071E-1,1.5288658E-1,4.836939E-3,1.5200023E-1,1.2306986E-1],"split_indices":[2,0,0,2,2,1,1,0,0,0,0,0,0,0,0],"split_type":[0,0,0,0,0,0,0,0,0,0,0,0,0,0,0],"sum_hessian":[1.7986394E5,1.7452453E5,5.339404E3,2.296641E4,1.5155812E5,4.0421982E3,1.2972054E3,3.0336724E3,1.9932738E4,1.4897142E5,2.58669E3,4.3240433E2,3.609794E3,1.1994784E2,1.1772576E3],"tree_param":{"num_deleted":"0","num_feature":"3","num_nodes":"15","size_leaf_vector":"1"}},{"base_weights":[-2.4797618E-3,1.4228038E-1,-4.5193415E-2,8.520338E-2,8.893887E-1,-1.409405E-1,8.668196E-2,-7.5970456E-2,1.1163032E-2,-4.2020734E-2,1.18556336E-1,-4.0312186E-2,2.0663103E-3,6.446229E-3,1.2400978E-1],"categories":[],"categories_nodes":[],"categories_segments":[],"categories_sizes":[],"default_left":[0,0,0,0,0,0,0,0,0,0,0,0,0,0,0],"id":64,"left_children":[1,3,5,7,9,11,13,-1,-1,-1,-1,-1,-1,-1,-1],"loss_changes":[1.1081857E3,1.7412009E3,1.7474207E3,8.4715466E2,1.1245786E3,3.3971104E3,1.491834E3,0E0,0E0,0E0,0E0,0E0,0E0,0E0,0E0],"parents":[2147483647,0,0,1,1,2,2,3,3,4,4,5,5,6,6],"right_children":[2,4,6,8,10,12,14,-1,-1,-1,-1,-1,-1,-1,-1],"split_conditions":[-4.9280837E-1,1.1954893E2,3.169267E-1,1.2183484E-1,7.259543E-2,1.0981139E0,2.6985034E2,-7.5970456E-2,1.1163032E-2,-4.2020734E-2,1.18556336E-1,-4.0312186E-2,2.0663103E-3,6.446229E-3,1.2400978E-1],"split_indices":[1,2,1,0,0,0,2,0,0,0,0,0,0,0,0],"split_type":[0,0,0,0,0,0,0,0,0,0,0,0,0,0,0],"sum_hessian":[1.7922222E5,4.0833098E4,1.3838912E5,3.7936004E4,2.897092E3,8.01771E4,5.8212027E4,1.1497292E3,3.6786277E4,5.342738E2,2.3628184E3,3.0573684E4,4.9603414E4,5.7112848E4,1.0991796E3],"tree_param":{"num_deleted":"0","num_feature":"3","num_nodes":"15","size_leaf_vector":"1"}},{"base_weights":[-2.3478046E-3,-1.1141047E-2,7.6591027E-1,-2.8808516E-1,1.5869817E-2,-4.9091825E-1,1.0563284E0,-9.0408E-2,-1.8657843E-2,-5.8277515E-3,1.9908853E-2,-3.8393314E-3,-5.7226986E-2,7.130177E-2,1.5607809E-1],"categories":[],"categories_nodes":[],"categories_segments":[],"categories_sizes":[],"default_left":[0,0,0,0,0,0,0,0,0,0,0,0,0,0,0],"id":65,"left_children":[1,3,5,7,9,11,13,-1,-1,-1,-1,-1,-1,-1,-1],"loss_changes":[1.2113582E3,1.3261884E3,7.411726E2,9.8492053E2,2.1944526E3,1.4024475E1,2.843982E2,0E0,0E0,0E0,0E0,0E0,0E0,0E0,0E0],"parents":[2147483647,0,0,1,1,2,2,3,3,4,4,5,5,6,6],"right_children":[2,4,6,8,10,12,14,-1,-1,-1,-1,-1,-1,-1,-1],"split_conditions":[1.4149019E3,2.509372E-1,4.0189072E-2,9.038676E1,6.491639E1,-1.5889196E-1,1.4449681E-1,-9.0408E-2,-1.8657843E-2,-5.8277515E-3,1.9908853E-2,-3.8393314E-3,-5.7226986E-2,7.130177E-2,1.5607809E-1],"split_indices":[2,0,0,2,2,1,0,0,0,0,0,0,0,0,0],"split_type":[0,0,0,0,0,0,0,0,0,0,0,0,0,0,0],"sum_hessian":[1.7931261E5,1.7728445E5,2.0281571E3,1.5753469E4,1.6153098E5,3.8055542E2,1.6476017E3,2.2275642E3,1.3525904E4,1.1499429E5,4.65367E4,5.8212975E1,3.2234244E2,9.8182404E2,6.657777E2],"tree_param":{"num_deleted":"0","num_feature":"3","num_nodes":"15","size_leaf_vector":"1"}},{"base_weights":[-2.19029E-3,-1.3446349E-2,5.274056E-1,-2.6003733E-1,1.7913446E-2,2.9001498E-1,1.2594085E0,-8.6484745E-2,-1.6591892E-2,2.7799266E-4,1.0578592E-1,-2.0028403E-2,6.0585726E-2,1.3226746E-1,1.1759843E-1],"categories":[],"categories_nodes":[],"categories_segments":[],"categories_sizes":[],"default_left":[0,0,0,0,0,0,0,0,0,0,0,0,0,0,0],"id":66,"left_children":[1,3,5,7,9,11,13,-1,-1,-1,-1,-1,-1,-1,-1],"loss_changes":[1.065315E3,1.3532084E3,6.4593066E2,1.1237191E3,2.443289E3,4.3523212E2,3.25E0,0E0,0E0,0E0,0E0,0E0,0E0,0E0,0E0],"parents":[2147483647,0,0,1,1,2,2,3,3,4,4,5,5,6,6],"right_children":[2,4,6,8,10,12,14,-1,-1,-1,-1,-1,-1,-1,-1],"split_conditions":[7.253127E2,3.172963E-1,1.9000956E-1,8.863144E1,1.9285915E2,1.4149019E3,2.5429755E-1,-8.6484745E-2,-1.6591892E-2,2.7799266E-4,1.0578592E-1,-2.0028403E-2,6.0585726E-2,1.3226746E-1,1.1759843E-1],"split_indices":[2,0,0,2,2,2,0,0,0,0,0,0,0,0,0],"split_type":[0,0,0,0,0,0,0,0,0,0,0,0,0,0,0],"sum_hessian":[1.7870706E5,1.7498883E5,3.718247E3,1.9742291E4,1.5524653E5,2.8087559E3,9.094913E2,2.657414E3,1.7084877E4,1.5302075E5,2.2257888E3,1.1006003E3,1.7081554E3,5.0878882E2,4.0070248E2],"tree_param":{"num_deleted":"0","num_feature":"3","num_nodes":"15","size_leaf_vector":"1"}},{"base_weights":[-1.973974E-3,-2.3053482E-2,2.7872688E-1,1.1208901E-1,-8.750705E-2,8.35589E-1,-5.6997128E-2,6.9815577E-3,1.17838934E-1,-3.193019E-2,1.8512565E-4,-6.9007784E-2,1.5707658E-1,5.4047287E-2,-7.226011E-2],"categories":[],"categories_nodes":[],"categories_segments":[],"categories_sizes":[],"default_left":[0,0,0,0,0,0,0,0,0,0,0,0,0,0,0],"id":67,"left_children":[1,3,5,7,9,11,13,-1,-1,-1,-1,-1,-1,-1,-1],"loss_changes":[1.0544164E3,1.4437842E3,2.3271074E3,2.412633E3,2.3245635E3,5.2523887E3,3.088974E3,0E0,0E0,0E0,0E0,0E0,0E0,0E0,0E0],"parents":[2147483647,0,0,1,1,2,2,3,3,4,4,5,5,6,6],"right_children":[2,4,6,8,10,12,14,-1,-1,-1,-1,-1,-1,-1,-1],"split_conditions":[7.693716E-1,-3.5978904E-1,1.1141019E0,1.7713083E2,7.31319E-1,5.7034245E1,5.6385456E1,6.9815577E-3,1.17838934E-1,-3.193019E-2,1.8512565E-4,-6.9007784E-2,1.5707658E-1,5.4047287E-2,-7.226011E-2],"split_indices":[1,1,0,2,0,2,2,0,0,0,0,0,0,0,0],"split_type":[0,0,0,0,0,0,0,0,0,0,0,0,0,0,0],"sum_hessian":[1.7819802E5,1.6575164E5,1.2446365E4,5.352429E4,1.1222736E5,4.68083E3,7.7655356E3,5.148426E4,2.0400262E3,3.1225652E4,8.100171E4,1.5221235E3,3.1587068E3,4.092315E3,3.6732207E3],"tree_param":{"num_deleted":"0","num_feature":"3","num_nodes":"15","size_leaf_vector":"1"}},{"base_weights":[-2.0217465E-3,-1.676846E-2,3.844979E-1,-2.5201237E-1,2.0877805E-2,1.6537485E-1,1.2192743E0,-9.577629E-2,-1.6322525E-2,9.496212E-5,1.0889279E-1,1.4829858E-1,8.987753E-4,1.5163174E-1,1.17973186E-1],"categories":[],"categories_nodes":[],"categories_segments":[],"categories_sizes":[],"default_left":[0,0,0,0,0,0,0,0,0,0,0,0,0,0,0],"id":68,"left_children":[1,3,5,7,9,11,13,-1,-1,-1,-1,-1,-1,-1,-1],"loss_changes":[1.0155126E3,1.519843E3,1.1974741E3,1.483364E3,3.1488313E3,1.0688862E3,1.4199341E1,0E0,0E0,0E0,0E0,0E0,0E0,0E0,0E0],"parents":[2147483647,0,0,1,1,2,2,3,3,4,4,5,5,6,6],"right_children":[2,4,6,8,10,12,14,-1,-1,-1,-1,-1,-1,-1,-1],"split_conditions":[3.841419E2,4.0270764E-1,2.4079455E-1,8.011478E1,1.3049452E2,-2.8343213E-1,-2.6956102E-1,-9.577629E-2,-1.6322525E-2,9.496212E-5,1.0889279E-1,1.4829858E-1,8.987753E-4,1.5163174E-1,1.17973186E-1],"split_indices":[2,0,0,2,2,1,1,0,0,0,0,0,0,0,0],"split_type":[0,0,0,0,0,0,0,0,0,0,0,0,0,0,0],"sum_hessian":[1.7816127E5,1.7161469E5,6.546582E3,2.3674129E4,1.4794056E5,5.1863887E3,1.3601934E3,2.6444167E3,2.1029713E4,1.4523175E5,2.7088018E3,5.4936145E2,4.6370273E3,1.554092E2,1.2047842E3],"tree_param":{"num_deleted":"0","num_feature":"3","num_nodes":"15","size_leaf_vector":"1"}},{"base_weights":[-1.8156334E-3,2.398081E-1,-2.5654048E-2,6.758865E-1,-4.737766E-2,-6.896544E-2,1.5833557E-1,-8.086601E-2,1.2479265E-1,5.655102E-2,-5.7364732E-2,-2.6957316E-2,1.3486525E-3,4.9104553E-2,-5.843455E-3],"categories":[],"categories_nodes":[],"categories_segments":[],"categories_sizes":[],"default_left":[0,0,0,0,0,0,0,0,0,0,0,0,0,0,0],"id":69,"left_children":[1,3,5,7,9,11,13,-1,-1,-1,-1,-1,-1,-1,-1],"loss_changes":[1.0224166E3,1.9962739E3,1.2874991E3,5.3759834E3,3.1004902E3,2.1631736E3,2.2203613E3,0E0,0E0,0E0,0E0,0E0,0E0,0E0,0E0],"parents":[2147483647,0,0,1,1,2,2,3,3,4,4,5,5,6,6],"right_children":[2,4,6,8,10,12,14,-1,-1,-1,-1,-1,-1,-1,-1],"split_conditions":[-7.3357135E-1,1.130957E0,5.905841E-1,5.6090748E1,5.4963642E1,8.017002E-1,1.1141019E0,-8.086601E-2,1.2479265E-1,5.655102E-2,-5.7364732E-2,-2.6957316E-2,1.3486525E-3,4.9104553E-2,-5.843455E-3],"split_indices":[1,0,1,2,2,0,0,0,0,0,0,0,0,0,0],"split_type":[0,0,0,0,0,0,0,0,0,0,0,0,0,0,0],"sum_hessian":[1.7750308E5,1.5938905E4,1.6156417E5,6.328307E3,9.610598E3,1.307792E5,3.0784973E4,1.7601049E3,4.568202E3,4.439884E3,5.1707144E3,3.8093793E4,9.268541E4,1.2144186E4,1.8640787E4],"tree_param":{"num_deleted":"0","num_feature":"3","num_nodes":"15","size_leaf_vector":"1"}},{"base_weights":[-1.8973283E-3,-3.1660162E-2,2.0063372E-1,-3.3119112E-1,2.1124015E-2,7.0498034E-2,1.0146694E0,-5.055177E-2,4.1528847E-2,-1.2447928E-3,2.9320767E-2,7.1695864E-2,-7.4862004E-3,1.0965736E-1,-1.3979161E-1],"categories":[],"categories_nodes":[],"categories_segments":[],"categories_sizes":[],"default_left":[0,0,0,0,0,0,0,0,0,0,0,0,0,0,0],"id":70,"left_children":[1,3,5,7,9,11,13,-1,-1,-1,-1,-1,-1,-1,-1],"loss_changes":[1.0698341E3,2.446532E3,2.408874E3,3.017098E3,1.2017053E3,1.8424819E3,6.208467E2,0E0,0E0,0E0,0E0,0E0,0E0,0E0,0E0],"parents":[2147483647,0,0,1,1,2,2,3,3,4,4,5,5,6,6],"right_children":[2,4,6,8,10,12,14,-1,-1,-1,-1,-1,-1,-1,-1],"split_conditions":[1.1954893E2,6.558463E-1,4.2383382E-1,7.1155536E-1,6.819643E1,-4.1562122E-1,8.9477587E-1,-5.055177E-2,4.1528847E-2,-1.2447928E-3,2.9320767E-2,7.1695864E-2,-7.4862004E-3,1.0965736E-1,-1.3979161E-1],"split_indices":[2,0,0,1,2,1,0,0,0,0,0,0,0,0,0],"split_type":[0,0,0,0,0,0,0,0,0,0,0,0,0,0,0],"sum_hessian":[1.774784E5,1.5473958E5,2.2738822E4,2.3182436E4,1.3155714E5,1.9605654E4,3.1331682E3,1.879381E4,4.388624E3,1.17108305E5,1.4448842E4,3.5984248E3,1.60072295E4,3.0308213E3,1.02347015E2],"tree_param":{"num_deleted":"0","num_feature":"3","num_nodes":"15","size_leaf_vector":"1"}},{"base_weights":[-1.7679603E-3,-1.2972148E-2,5.3636426E-1,-6.042028E-1,-8.714025E-4,-4.8017746E-1,6.9332737E-1,-8.026532E-2,-4.0236995E-2,1.9882983E-2,-3.7025732E-3,4.315512E-2,-5.1087637E-2,5.910452E-2,1.9012772E-1],"categories":[],"categories_nodes":[],"categories_segments":[],"categories_sizes":[],"default_left":[0,0,0,0,0,0,0,0,0,0,0,0,0,0,0],"id":71,"left_children":[1,3,5,7,9,11,13,-1,-1,-1,-1,-1,-1,-1,-1],"loss_changes":[1.0657443E3,1.2388046E3,5.7557214E2,1.3877917E2,1.225127E3,1.3733688E1,3.8477344E2,0E0,0E0,0E0,0E0,0E0,0E0,0E0,0E0],"parents":[2147483647,0,0,1,1,2,2,3,3,4,4,5,5,6,6],"right_children":[2,4,6,8,10,12,14,-1,-1,-1,-1,-1,-1,-1,-1],"split_conditions":[7.253127E2,8.294827E-2,4.0189072E-2,1.3717906E2,-6.2675685E-1,-3.1118944E-1,2.407377E-1,-8.026532E-2,-4.0236995E-2,1.9882983E-2,-3.7025732E-3,4.315512E-2,-5.1087637E-2,5.910452E-2,1.9012772E-1],"split_indices":[2,0,0,2,1,1,1,0,0,0,0,0,0,0,0],"split_type":[0,0,0,0,0,0,0,0,0,0,0,0,0,0,0],"sum_hessian":[1.767577E5,1.7315355E5,3.6041694E3,3.471881E3,1.6968166E5,4.8180328E2,3.1223662E3,1.7491083E3,1.7227728E3,2.6009832E4,1.4367183E5,1.5269056E1,4.665342E2,2.8799944E3,2.4237187E2],"tree_param":{"num_deleted":"0","num_feature":"3","num_nodes":"15","size_leaf_vector":"1"}},{"base_weights":[-1.6610507E-3,-1.560984E-2,3.7391517E-1,-1.0783171E-1,1.5405816E-1,2.2703729E0,-8.059224E-1,-5.103602E-2,1.0609982E-2,3.7809607E-2,-1.0870256E-1,1.7920104E-1,3.174474E-1,8.245263E-3,-9.758885E-2],"categories":[],"categories_nodes":[],"categories_segments":[],"categories_sizes":[],"default_left":[0,0,0,0,0,0,0,0,0,0,0,0,0,0,0],"id":72,"left_children":[1,3,5,7,9,11,13,-1,-1,-1,-1,-1,-1,-1,-1],"loss_changes":[9.250781E2,2.6640532E3,1.415033E4,9.49869E3,1.6670852E4,1.0432744E3,5.8879004E2,0E0,0E0,0E0,0E0,0E0,0E0,0E0,0E0],"parents":[2147483647,0,0,1,1,2,2,3,3,4,4,5,5,6,6],"right_children":[2,4,6,8,10,12,14,-1,-1,-1,-1,-1,-1,-1,-1],"split_conditions":[9.772706E0,6.430793E1,6.321862E1,1.4224714E0,1.5925725E0,1.3570714E1,6.6246994E1,-5.103602E-2,1.0609982E-2,3.7809607E-2,-1.0870256E-1,1.7920104E-1,3.174474E-1,8.245263E-3,-9.758885E-2],"split_indices":[0,2,2,0,0,0,2,0,0,0,0,0,0,0,0],"split_type":[0,0,0,0,0,0,0,0,0,0,0,0,0,0,0],"sum_hessian":[1.7657883E5,1.7025652E5,6.3223184E3,1.1030264E5,5.9953875E4,2.4244155E3,3.8979026E3,3.8278098E4,7.202455E4,5.0786664E4,9.16721E3,1.5874653E3,8.3695026E2,6.26073E2,3.2718296E3],"tree_param":{"num_deleted":"0","num_feature":"3","num_nodes":"15","size_leaf_vector":"1"}},{"base_weights":[-2.352806E-3,-4.8355484E-1,8.943912E-3,-7.803185E-1,-2.4832447E-1,-5.115161E-2,1.2300063E-1,-9.080596E-2,-6.8072625E-2,-3.8643133E-2,1.5668599E-2,-1.792273E-2,9.693319E-2,4.0596854E-2,-1.0157102E-1],"categories":[],"categories_nodes":[],"categories_segments":[],"categories_sizes":[],"default_left":[0,0,0,0,0,0,0,0,0,0,0,0,0,0,0],"id":73,"left_children":[1,3,5,7,9,11,13,-1,-1,-1,-1,-1,-1,-1,-1],"loss_changes":[9.520452E2,2.802392E2,1.1729136E3,2.1973755E1,1.25488556E2,1.4647821E4,1.9027248E4,0E0,0E0,0E0,0E0,0E0,0E0,0E0,0E0],"parents":[2147483647,0,0,1,1,2,2,3,3,4,4,5,5,6,6],"right_children":[2,4,6,8,10,12,14,-1,-1,-1,-1,-1,-1,-1,-1],"split_conditions":[7.7824526E-2,1.5395627E2,6.430793E1,1.0431334E2,1.4149019E3,4.7317014E0,1.6583012E0,-9.080596E-2,-6.8072625E-2,-3.8643133E-2,1.5668599E-2,-1.792273E-2,9.693319E-2,4.0596854E-2,-1.0157102E-1],"split_indices":[0,2,2,2,2,0,0,0,0,0,0,0,0,0,0],"split_type":[0,0,0,0,0,0,0,0,0,0,0,0,0,0,0],"sum_hessian":[1.7513517E5,4.016214E3,1.7111897E5,1.774814E3,2.2414001E3,1.1207051E5,5.9048453E4,7.739703E2,1.0008437E3,1.6714789E3,5.6992126E2,9.957427E4,1.2496235E4,4.729609E4,1.1752363E4],"tree_param":{"num_deleted":"0","num_feature":"3","num_nodes":"15","size_leaf_vector":"1"}},{"base_weights":[-2.7401561E-3,-1.4939032E-1,3.9727747E-2,-9.5612204E-1,-7.274002E-2,-2.5036937E-2,3.1292963E-1,-3.9981693E-2,-9.7295515E-2,4.2258713E-2,-1.7669605E-2,-1.7576417E-2,6.764401E-2,1.2609565E-1,-9.985017E-2],"categories":[],"categories_nodes":[],"categories_segments":[],"categories_sizes":[],"default_left":[0,0,0,0,0,0,0,0,0,0,0,0,0,0,0],"id":74,"left_children":[1,3,5,7,9,11,13,-1,-1,-1,-1,-1,-1,-1,-1],"loss_changes":[1.0810161E3,2.4101663E3,2.381562E3,3.1281006E1,1.8330309E3,1.150434E4,3.2069152E4,0E0,0E0,0E0,0E0,0E0,0E0,0E0,0E0],"parents":[2147483647,0,0,1,1,2,2,3,3,4,4,5,5,6,6],"right_children":[2,4,6,8,10,12,14,-1,-1,-1,-1,-1,-1,-1,-1],"split_conditions":[5.396545E-1,7.236668E1,6.430793E1,-8.781778E-1,-5.77066E-1,3.682483E0,1.5925725E0,-3.9981693E-2,-9.7295515E-2,4.2258713E-2,-1.7669605E-2,-1.7576417E-2,6.764401E-2,1.2609565E-1,-9.985017E-2],"split_indices":[0,2,2,1,1,0,0,0,0,0,0,0,0,0,0],"split_type":[0,0,0,0,0,0,0,0,0,0,0,0,0,0,0],"sum_hessian":[1.7357367E5,3.897673E4,1.3459695E5,3.3809817E3,3.5595746E4,1.0880481E5,2.5792139E4,1.00026505E2,3.280955E3,6.174166E3,2.942158E4,8.956139E4,1.9243418E4,1.4970257E4,1.0821882E4],"tree_param":{"num_deleted":"0","num_feature":"3","num_nodes":"15","size_leaf_vector":"1"}},{"base_weights":[-2.9706792E-3,-1.3000672E-1,4.613743E-2,-9.966568E-1,-3.3659235E-2,6.153451E-2,-7.3472726E-1,-1.00393474E-1,-8.012297E-2,-1.584698E-2,5.2210428E-2,8.828207E-5,4.659056E-2,2.3082914E-2,-2.503954E-1],"categories":[],"categories_nodes":[],"categories_segments":[],"categories_sizes":[],"default_left":[0,0,0,0,0,0,0,0,0,0,0,0,0,0,0],"id":75,"left_children":[1,3,5,7,9,11,13,-1,-1,-1,-1,-1,-1,-1,-1],"loss_changes":[1.0697302E3,3.9917153E3,1.486895E3,5.998535E0,2.9844307E3,2.9743984E3,4.085753E3,0E0,0E0,0E0,0E0,0E0,0E0,0E0,0E0],"parents":[2147483647,0,0,1,1,2,2,3,3,4,4,5,5,6,6],"right_children":[2,4,6,8,10,12,14,-1,-1,-1,-1,-1,-1,-1,-1],"split_conditions":[7.31319E-1,6.1152378E1,9.224555E1,5.829508E1,5.693046E-1,6.430793E1,9.675213E-1,-1.00393474E-1,-8.012297E-2,-1.584698E-2,5.2210428E-2,8.828207E-5,4.659056E-2,2.3082914E-2,-2.503954E-1],"split_indices":[0,2,2,2,1,2,0,0,0,0,0,0,0,0,0],"split_type":[0,0,0,0,0,0,0,0,0,0,0,0,0,0,0],"sum_hessian":[1.7147039E5,4.7804633E4,1.23665766E5,4.7818975E3,4.3022734E4,1.21275375E5,2.390385E3,4.6062188E3,1.7567896E2,3.5133375E4,7.889362E3,1.05458625E5,1.5816756E4,1.5469861E3,8.4339886E2],"tree_param":{"num_deleted":"0","num_feature":"3","num_nodes":"15","size_leaf_vector":"1"}},{"base_weights":[-2.9221529E-3,3.2158083E-1,-2.1199763E-2,8.5165805E-1,-5.5282563E-3,-1.6186877E-1,3.5302807E-2,-7.529654E-2,1.295393E-1,3.7054636E-2,-7.628961E-2,-5.385056E-2,9.572367E-3,2.1944003E-2,-3.8424977E-3],"categories":[],"categories_nodes":[],"categories_segments":[],"categories_sizes":[],"default_left":[0,0,0,0,0,0,0,0,0,0,0,0,0,0,0],"id":76,"left_children":[1,3,5,7,9,11,13,-1,-1,-1,-1,-1,-1,-1,-1],"loss_changes":[1.0158699E3,1.5835663E3,1.2887556E3,2.482497E3,1.6091655E3,4.508048E3,1.5704869E3,0E0,0E0,0E0,0E0,0E0,0E0,0E0,0E0],"parents":[2147483647,0,0,1,1,2,2,3,3,4,4,5,5,6,6],"right_children":[2,4,6,8,10,12,14,-1,-1,-1,-1,-1,-1,-1,-1],"split_conditions":[-7.983375E-1,1.1141019E0,7.7398497E-1,5.536973E1,5.8022438E1,1.0144721E2,5.2456455E1,-7.529654E-2,1.295393E-1,3.7054636E-2,-7.628961E-2,-5.385056E-2,9.572367E-3,2.1944003E-2,-3.8424977E-3],"split_indices":[1,0,0,2,2,2,2,0,0,0,0,0,0,0,0],"split_type":[0,0,0,0,0,0,0,0,0,0,0,0,0,0,0],"sum_hessian":[1.7127522E5,9.131784E3,1.6214344E5,3.4841494E3,5.6476353E3,4.646418E4,1.15679266E5,7.546186E2,2.7295308E3,3.774099E3,1.8735361E3,1.8871E4,2.7593182E4,3.307401E4,8.260525E4],"tree_param":{"num_deleted":"0","num_feature":"3","num_nodes":"15","size_leaf_vector":"1"}},{"base_weights":[-2.8738477E-3,-3.535326E-2,1.6992575E-1,-2.0400237E-1,2.8807154E-2,4.572571E-1,-3.1236984E-2,-6.0177922E-2,2.3356655E-3,-2.291789E-3,3.1386886E-2,-8.429841E-2,9.61956E-2,5.3105306E-2,-6.224481E-2],"categories":[],"categories_nodes":[],"categories_segments":[],"categories_sizes":[],"default_left":[0,0,0,0,0,0,0,0,0,0,0,0,0,0,0],"id":77,"left_children":[1,3,5,7,9,11,13,-1,-1,-1,-1,-1,-1,-1,-1],"loss_changes":[9.60025E2,1.5580541E3,1.5643353E3,3.5888132E3,1.5380074E3,7.314597E3,5.292669E3,0E0,0E0,0E0,0E0,0E0,0E0,0E0,0E0],"parents":[2147483647,0,0,1,1,2,2,3,3,4,4,5,5,6,6],"right_children":[2,4,6,8,10,12,14,-1,-1,-1,-1,-1,-1,-1,-1],"split_conditions":[6.1887294E-1,7.395679E-1,1.1482272E0,1.0144721E2,6.430793E1,5.6385456E1,5.6090748E1,-6.0177922E-2,2.3356655E-3,-2.291789E-3,3.1386886E-2,-8.429841E-2,9.61956E-2,5.3105306E-2,-6.224481E-2],"split_indices":[1,0,0,2,2,2,2,0,0,0,0,0,0,0,0],"split_type":[0,0,0,0,0,0,0,0,0,0,0,0,0,0,0],"sum_hessian":[1.7105133E5,1.4398812E5,2.706321E4,3.9681355E4,1.04306766E5,1.1144153E4,1.5919057E4,1.4431326E4,2.5250031E4,8.8287695E4,1.6019068E4,3.1159502E3,8.0282036E3,8.159145E3,7.759911E3],"tree_param":{"num_deleted":"0","num_feature":"3","num_nodes":"15","size_leaf_vector":"1"}},{"base_weights":[-2.9581715E-3,1.926602E-1,-3.274452E-2,5.1843786E-1,-2.487928E-2,-1.9153762E-1,2.2686306E-2,-8.136082E-2,9.153824E-2,3.713747E-2,-6.589241E-2,-5.748118E-2,3.7304354E-3,-3.4650043E-3,3.2222684E-2],"categories":[],"categories_nodes":[],"categories_segments":[],"categories_sizes":[],"default_left":[0,0,0,0,0,0,0,0,0,0,0,0,0,0,0],"id":78,"left_children":[1,3,5,7,9,11,13,-1,-1,-1,-1,-1,-1,-1,-1],"loss_changes":[9.933328E2,1.5965596E3,1.3022632E3,4.770083E3,3.3942642E3,3.3577388E3,1.8835178E3,0E0,0E0,0E0,0E0,0E0,0E0,0E0,0E0],"parents":[2147483647,0,0,1,1,2,2,3,3,4,4,5,5,6,6],"right_children":[2,4,6,8,10,12,14,-1,-1,-1,-1,-1,-1,-1,-1],"split_conditions":[-6.622522E-1,1.130957E0,6.770307E-1,5.6286354E1,5.71508E1,1.0750907E2,6.430793E1,-8.136082E-2,9.153824E-2,3.713747E-2,-6.589241E-2,-5.748118E-2,3.7304354E-3,-3.4650043E-3,3.2222684E-2],"split_indices":[1,0,0,2,2,2,2,0,0,0,0,0,0,0,0],"split_type":[0,0,0,0,0,0,0,0,0,0,0,0,0,0,0],"sum_hessian":[1.7047575E5,2.2526977E4,1.4794877E5,9.019053E3,1.3507924E4,3.828137E4,1.0966739E5,2.0703682E3,6.9486846E3,8.313018E3,5.1949067E3,1.4311072E4,2.39703E4,9.204882E4,1.7618576E4],"tree_param":{"num_deleted":"0","num_feature":"3","num_nodes":"15","size_leaf_vector":"1"}},{"base_weights":[-2.9554486E-3,-1.9274876E-2,3.3704928E-1,1.1562126E-1,-7.018002E-2,8.938914E-1,-4.0691072E-4,8.862869E-3,1.3462642E-1,-2.7654922E-2,1.7189154E-3,-6.985055E-2,1.3767666E-1,6.4542964E-2,-5.150929E-2],"categories":[],"categories_nodes":[],"categories_segments":[],"categories_sizes":[],"default_left":[0,0,0,0,0,0,0,0,0,0,0,0,0,0,0],"id":79,"left_children":[1,3,5,7,9,11,13,-1,-1,-1,-1,-1,-1,-1,-1],"loss_changes":[9.4294183E2,1.1135215E3,1.4625281E3,1.4756804E3,2.122714E3,2.259232E3,1.6115674E3,0E0,0E0,0E0,0E0,0E0,0E0,0E0,0E0],"parents":[2147483647,0,0,1,1,2,2,3,3,4,4,5,5,6,6],"right_children":[2,4,6,8,10,12,14,-1,-1,-1,-1,-1,-1,-1,-1],